dense/kernel:0
(784, 128)
[[-0.06170068  0.07479127 -0.3753174  ... -0.17286131  0.01561358
   0.26541033]
 [ 0.0250839   0.15339185 -0.12694776 ... -0.15735213  0.4878077
   0.01433024]
 [-0.00532018  0.09404642  0.2531256  ...  0.3060106   0.33482105
   0.3355566 ]
 ...
 [ 0.06418074  0.00642013  0.05001781 ...  0.5383515   0.10359274
  -0.06413985]
 [ 0.03680297 -0.12996407  0.15804513 ...  0.6257773   0.09362253
  -0.12519641]
 [ 0.01545561  0.293897    0.0508536  ...  0.3208076   0.39778835
   0.15797584]]
dense/bias:0
(128,)
[-1.17507456e-02  1.97423279e-01 -1.79917708e-01  6.93016708e-01
  2.80640125e-01  3.53245467e-01  2.99809337e-01  2.23124117e-01
  4.68509972e-01 -3.34522128e-01  1.75552353e-01  3.74978721e-01
  1.92290291e-01  4.05249715e-01 -2.50475019e-01  3.94322902e-01
  4.46328312e-01 -9.52952076e-03  8.70433450e-02 -1.60160735e-02
  1.53362185e-01  2.42232412e-01 -1.51094586e-01 -3.70422810e-01
 -1.68959245e-01  4.44606543e-01  4.96620871e-02  4.13350791e-01
 -1.89378709e-02  4.28280383e-01  4.59266663e-01  2.52056777e-01
  3.57276946e-02 -2.10733078e-02  6.28716588e-01 -1.90862827e-02
  1.10253088e-01  3.92907739e-01 -3.25895399e-01  1.88796341e-01
 -1.52517995e-02  8.46258178e-02  2.65399724e-01  1.54410461e-02
  1.10495023e-01 -3.68694775e-02 -2.08779007e-01 -1.81673869e-01
  3.92848641e-01  3.55523854e-01 -2.47450918e-01  3.20410162e-01
 -1.18969753e-02  3.62891495e-01 -1.27883554e-01  3.17854792e-01
  2.07733363e-01  3.19188207e-01 -2.40093805e-02 -2.63681617e-02
  3.73985052e-01  2.82284200e-01  2.30346009e-01  2.49054804e-01
 -6.62222272e-04  3.29009295e-01  1.97345629e-01  2.78833717e-01
  3.52257222e-01 -1.84303865e-01  1.60678595e-01 -2.91800261e-01
  1.69450074e-01  4.60201532e-01  1.87629849e-01  2.33353600e-01
 -2.01628432e-02  6.53976858e-01  3.82872880e-01 -1.62403341e-02
  3.05083662e-01 -1.77848548e-01  6.03724308e-02  2.18365222e-01
  1.15485661e-01  2.40973815e-01  5.67612290e-01  1.89637348e-01
  1.34361178e-01 -5.04133523e-01  1.23208046e-01  4.64147210e-01
  1.60958216e-01  2.04720214e-01 -1.02167549e-02  8.45140815e-02
  1.15098432e-01 -1.15592154e-02  5.10665953e-01  4.03125733e-01
  1.73459519e-02  1.34188645e-02 -2.25284487e-01  1.02559134e-01
  2.81831503e-01 -9.69955418e-03 -1.98112190e-01  1.20504722e-01
 -1.75549574e-02  7.60805011e-02  4.93802577e-01  3.98622602e-01
 -3.18025351e-01  3.55791569e-01  4.04220253e-01 -3.49044167e-02
  2.99669176e-01  2.01979324e-01  4.28389639e-01  2.34418586e-01
  2.19954550e-01 -8.92549828e-02 -3.97049308e-01  2.20380396e-01
  3.33104610e-01 -3.69307473e-02  8.99983525e-01  4.49163288e-01]
dense_1/kernel:0
(128, 10)
[[-0.12075574  0.11335991  0.01476345 ... -0.0525437   0.07156374
   0.07468949]
 [-0.07725968 -0.2799355   0.03425767 ... -0.01517501 -0.22010405
   0.181572  ]
 [ 0.15058583 -0.38366002  0.13745704 ...  0.12589973  0.2001756
   0.05411627]
 ...
 [ 0.05004517 -0.35595894  0.10680366 ... -0.16068129 -0.04908519
  -0.24982138]
 [ 0.17095771 -0.45436338  0.3974388  ...  0.32514924  0.00506373
  -0.1697734 ]
 [ 0.20598567 -0.17803803 -0.68641025 ... -0.76334184 -0.5543177
  -0.5593742 ]]
dense_1/bias:0
(10,)
[-0.07216807 -0.25728944  0.14003573  0.34662992 -0.3097795   0.12794463
  0.13233109  0.17054084 -0.12462942 -0.47528082]
