dense/kernel:0
(784, 128)
[[-2.06983581e-01 -6.61259284e-03 -4.17512268e-01  1.03038922e-01
   2.39438012e-01  5.15670776e-01  9.25376732e-03  5.02493918e-01
  -2.47911587e-02 -7.79833049e-02 -1.93765134e-01 -1.33286119e-02
  -4.88488562e-02  3.09741143e-02  5.13320826e-02 -4.84860726e-02
   3.85619998e-01 -3.23356502e-02  3.76784325e-01  5.71811974e-01
   4.76632938e-02 -2.03620210e-01  6.49466664e-02  3.37433904e-01
  -4.68217349e-03 -7.22630024e-02  1.77249424e-02 -1.44244567e-01
   6.20486774e-02  6.63545206e-02 -3.59264493e-01 -1.29297972e-01
   5.69269359e-01  4.49913710e-01 -3.23170960e-01 -5.17143793e-02
  -3.80951703e-01  4.33870256e-02 -4.59394664e-01 -1.20912842e-01
   8.90868530e-02  2.66405195e-01  8.52476060e-01  6.33010507e-01
   4.61250916e-02 -7.59270787e-02  1.98677674e-01 -6.16005778e-01
   1.09788194e-01  1.18913308e-01 -1.51087373e-01 -7.07219392e-02
   5.15735328e-01 -8.16263631e-02  6.46236420e-01 -1.95665453e-02
   1.19133651e-01  2.87448969e-02 -3.13152708e-02 -2.77466208e-01
   4.87253144e-02  6.22183904e-02  1.48048252e-02  1.84572101e-01
   1.36200152e-02 -2.21832961e-01  1.52352184e-01  5.78011394e-01
  -2.67145038e-03 -2.42102914e-03 -4.66317423e-02 -2.00431541e-01
  -2.56361902e-01  1.14426836e-02  3.82660329e-01 -1.59260646e-01
  -5.53239763e-01  2.77708650e-01 -2.18340885e-02  4.01434004e-01
   1.99331358e-01  6.90877497e-01  6.11808002e-02 -2.12064430e-01
  -3.11569721e-01  1.62534956e-02 -1.38500109e-01  1.02097690e-02
   3.77158821e-02  2.15944797e-02  1.43991932e-01  4.55518328e-02
  -1.18715622e-01  5.88700116e-01 -2.15437561e-02 -3.95260118e-02
  -2.26717547e-01 -6.94957301e-02 -4.21159476e-01  5.97817376e-02
  -1.73664540e-01  2.66204715e-01  7.24079460e-02  1.82450563e-01
  -2.37063125e-01 -3.52585949e-02  3.64836268e-02  2.88420171e-01
  -1.32573098e-02 -2.23149106e-01  1.60770416e-01 -6.50679618e-02
  -7.00298026e-02  4.48783338e-01  7.22180679e-02 -3.48783672e-01
  -3.55169654e-01 -5.91457337e-02 -5.54041028e-01  4.95154820e-02
   5.15602902e-02  1.67094156e-01 -3.52511108e-02 -2.43235379e-01
   6.68281496e-01 -5.49647659e-02 -3.13314125e-02  5.22800744e-01]
 [-7.81005770e-02 -2.91151702e-01  3.68963629e-01  3.24296474e-01
  -1.14053629e-01  6.46421015e-01 -4.04056236e-02  4.93607819e-01
  -1.71371579e-01 -2.61623293e-01  4.26021725e-01 -5.61842397e-02
   7.06604123e-03 -2.67157078e-01 -9.48862955e-02 -4.05239940e-01
   3.69483978e-01 -7.46934265e-02 -3.13894540e-01 -1.85236871e-01
   8.54402930e-02  1.99067101e-01  1.07209317e-01 -2.77491957e-01
   6.67287588e-01 -1.04648396e-01  1.19531222e-01  3.40378553e-01
   2.37544701e-01 -5.94974943e-02 -2.97252059e-01 -3.05383615e-02
   2.09010735e-01  6.91481307e-02 -4.82226796e-02  3.22445124e-01
  -3.80713671e-01  1.19659962e-04  2.59431958e-01  1.28835544e-01
   6.59699619e-01  2.55694568e-01 -7.62495697e-02  5.86610734e-02
  -6.90321997e-02  1.82557538e-01 -1.37031019e-01  6.00204885e-01
  -1.01065688e-01  4.43383008e-02  7.38527834e-01 -1.09141693e-02
   3.19278985e-01 -1.95156217e-01  1.15400091e-01  1.77966028e-01
  -6.32523894e-02 -9.20129416e-04  8.66045177e-01 -2.52280414e-01
  -9.71908122e-03  9.23115015e-02 -6.85379133e-02 -3.27855289e-01
   3.06222111e-01  3.67438138e-01 -1.15420692e-01  2.27756888e-01
  -4.01038289e-01  9.11561012e-01 -2.25917205e-01  4.65596825e-01
  -8.27742696e-01 -2.23671552e-02 -1.80031642e-01  3.74003172e-01
  -2.00676680e-01  4.14658427e-01  3.51428747e-01  1.37000710e-01
   2.98874378e-01 -4.21164781e-01 -4.28330749e-01 -2.83669710e-01
  -3.47534157e-02 -5.95804416e-02 -2.07281262e-01 -3.09786379e-01
  -3.21381897e-01  1.90611035e-02 -2.84052283e-01 -1.92416161e-01
  -1.05464675e-01  2.99994916e-01 -4.33245972e-02  1.44687146e-01
  -4.22003299e-01  1.13655150e-01 -2.80644923e-01  3.16360444e-02
  -6.31262004e-01  3.78925443e-01  2.99516410e-01 -2.09597591e-02
  -3.29523772e-01 -8.46778378e-02  6.87444150e-01  2.04204276e-01
   3.46536726e-01  5.02897918e-01  1.70715854e-01 -1.12700909e-02
  -7.65014812e-02  5.93774557e-01 -7.94470012e-02 -5.09589612e-01
  -2.67747551e-01 -2.86604539e-02  6.61943331e-02  3.29576015e-01
   3.77944633e-02 -1.06597416e-01 -4.17843044e-01  3.98449033e-01
  -1.52492523e-01  3.79351750e-02 -5.76737821e-01 -1.66597307e-01]
 [-5.73073626e-01  2.91977171e-02  5.25118053e-01  8.28590393e-02
   2.82399625e-01  1.08713019e+00 -2.66262852e-02  4.30035204e-01
  -3.43655825e-01 -3.58607203e-01  6.23538315e-01 -3.02332360e-02
  -7.93806762e-02  2.28262946e-01  2.51942903e-01 -3.67207557e-01
   4.94493812e-01 -6.97959587e-02 -3.19501072e-01 -4.14286137e-01
   1.52429044e-02  4.82643902e-01 -1.55913264e-01 -1.97235078e-01
   4.36224371e-01  2.07430631e-01 -4.40332413e-01  3.04078817e-01
   2.61840135e-01 -2.43994266e-01 -4.78193723e-02 -7.60627568e-01
   6.01610422e-01 -1.72541395e-01  7.04456687e-01  3.68980169e-01
   6.96709156e-01 -4.86167848e-01 -2.05917969e-01 -5.69453537e-01
   5.41704893e-01  2.72968233e-01 -1.95386544e-01  1.31656438e-01
  -7.31183589e-02  8.91737938e-02 -3.17372233e-01  3.71151417e-02
  -5.55342376e-01  3.03013235e-01  3.00460666e-01 -6.28888085e-02
   7.40011632e-01 -1.94288388e-01 -2.62948096e-01  6.41458407e-02
  -3.08990151e-01 -1.59524515e-01  4.18208838e-01 -5.71587682e-01
  -3.74123827e-02  4.16177837e-03  1.55146852e-01 -4.34183478e-01
   2.39209607e-01  2.64122039e-01 -1.65853277e-01  3.72134119e-01
  -5.40561020e-01  3.01302284e-01 -4.40581709e-01  2.61450797e-01
  -4.87432659e-01 -1.14507794e-01  7.33605981e-01  5.71496725e-01
   2.17775822e-01  3.05308282e-01  5.45248128e-02  2.46156693e-01
   5.42427123e-01 -3.37674826e-01 -4.36567813e-01 -7.15837061e-01
   2.62021482e-01 -3.01686049e-01 -1.81248978e-01 -3.52290064e-01
   1.75970718e-02 -7.52300546e-02 -3.59949917e-01 -1.83137521e-01
  -4.17857379e-01  5.71871459e-01  7.33076707e-02 -5.88634573e-02
  -4.58781868e-01 -2.39105120e-01 -4.97852266e-01  1.82459317e-02
  -8.48794758e-01 -1.97327048e-01  4.36968356e-01 -3.26566607e-01
  -9.33061093e-02  7.42315054e-01  3.30909908e-01  1.26748711e-01
  -3.13094050e-01 -2.29423679e-02  3.21893722e-01 -5.15673384e-02
   8.97561610e-02  4.43311840e-01 -6.02381863e-02 -6.72388136e-01
   6.29500091e-01 -5.18812656e-01 -5.63032150e-01  1.52401820e-01
  -2.27846205e-04  5.07958941e-02 -4.91437405e-01  2.66733438e-01
  -8.30795825e-01 -6.14608109e-01  1.91572949e-01 -4.58516359e-01]
 [-9.03536975e-02 -5.07404327e-01  8.49780679e-01 -3.86415780e-01
   1.25041828e-01  5.72149456e-01  1.84409857e-01  8.03532362e-01
  -7.04037249e-01 -4.81183857e-01  2.59655625e-01  2.69120950e-02
   1.40518233e-01  4.16521221e-01 -2.30167270e-01 -4.55587357e-01
  -1.36416569e-01 -5.38296811e-02  1.28558919e-01  5.80116928e-01
  -6.43159524e-02  4.69554774e-02  3.18054974e-01 -3.46294403e-01
   8.83593798e-01  2.40107954e-01  3.15494061e-01  2.98664212e-01
   2.52633870e-01 -4.34802510e-02 -5.31857833e-02 -6.66210175e-01
   7.38090947e-02 -1.92613125e-01  1.60160869e-01  1.73658043e-01
   5.60086071e-01 -4.14469540e-01 -4.89231609e-02  2.50910558e-02
  -9.77894589e-02  3.85443717e-02  1.12274304e-01  2.67802447e-01
  -2.70712674e-02  1.91132486e-01  1.88868478e-01  6.76751673e-01
  -8.70120823e-01 -4.00079079e-02 -2.96123236e-01  2.82520354e-02
   4.28789631e-02  1.98415861e-01 -1.62447304e-01  4.94869888e-01
   1.42076537e-01  1.87305778e-01  5.61922118e-02 -9.52589273e-01
  -8.26321840e-02  2.48956177e-02  2.06147850e-01  9.27410051e-02
   2.79916197e-01  6.69148266e-02 -3.25447232e-01 -2.38833398e-01
  -3.95287246e-01 -5.46315983e-02 -7.92955160e-01  5.18609524e-01
   2.23285332e-01 -8.69171470e-02 -3.15844297e-01 -6.79435953e-02
   9.97513011e-02 -1.05612352e-01  8.28102678e-02  8.74767080e-03
   2.07398057e-01  5.26666939e-01 -1.23661548e-01  3.97716731e-01
   4.11711395e-01 -3.01391095e-01  4.04330969e-01 -3.46262813e-01
   2.96179712e-01 -4.00087349e-02 -8.19329396e-02  1.82750374e-01
   2.49936312e-01 -3.23643565e-01  3.72442342e-02 -5.31135261e-01
   4.62172329e-01 -2.83924043e-01 -3.79806548e-01 -7.75564462e-02
  -5.67436635e-01 -4.65697274e-02  1.45283699e-01 -3.23047340e-01
  -9.20177847e-02 -2.73639262e-01  3.40486825e-01 -9.37543362e-02
  -5.17682850e-01  6.19756222e-01  1.56889379e-01  1.05647296e-02
   6.36956096e-02  2.93775052e-01 -8.42978433e-02  5.32213986e-01
   2.04499811e-01  8.27288069e-03 -3.48416835e-01 -2.67930329e-01
  -1.82108358e-02  9.49610844e-02  2.15999316e-02  5.75452149e-01
  -5.88514268e-01 -5.63142776e-01 -1.24484394e-02  2.46966451e-01]
 [-2.69287676e-01  1.19877303e+00 -1.68783218e-01  9.29506719e-01
  -1.96795747e-01  8.30287516e-01 -2.67772824e-01 -6.53569639e-01
  -4.08371985e-02  4.46335018e-01  3.71562779e-01 -1.36954139e-03
  -2.17492394e-02 -2.62877882e-01 -3.14855933e-01 -5.89894414e-01
   5.65137379e-02 -5.05000949e-02  3.19681376e-01  5.63970983e-01
   1.47793740e-01  1.79697618e-01 -1.95454970e-01 -1.84435189e-01
  -4.64913130e-01 -9.36411023e-02  6.35103703e-01  5.41984066e-02
  -7.49580979e-01 -2.16024040e-04 -3.10665518e-01  7.68616378e-01
  -9.10484232e-03 -5.15983626e-02 -7.90473819e-01  1.25114191e+00
   2.90198296e-01  2.74380594e-01 -4.79345828e-01  4.75162536e-01
  -6.02564327e-02  1.47925720e-01  4.35403019e-01  9.43079114e-01
   3.90882753e-02  1.99054450e-01 -9.80276823e-01 -1.53668031e-01
  -4.05468419e-02  7.68659934e-02  8.60200748e-02  1.16304010e-02
   1.58436432e-01  4.20947194e-01  5.69408119e-01  3.57826740e-01
   9.12954509e-01 -4.40459102e-01 -9.61598232e-02 -2.43742764e-01
  -7.46662915e-02 -4.90258858e-02  3.57490808e-01 -8.59134674e-01
  -7.72378594e-02  3.14818919e-01 -5.61871350e-01  2.84275740e-01
  -5.40940702e-01 -6.37657464e-01 -4.76413995e-01 -8.07943404e-01
  -2.07889423e-01  2.87898868e-01 -2.27817684e-01  4.43183720e-01
  -8.29723716e-01  5.46715319e-01  1.27642810e-01 -2.27269053e-01
   1.57195441e-02 -3.41957062e-02  7.14179337e-01 -1.79755777e-01
  -1.09741783e+00 -5.44114828e-01  9.24342964e-03  9.83411223e-02
   2.85171390e-01 -5.80717772e-02  1.54628724e-01 -4.87365723e-02
   5.65357745e-01 -4.74238664e-01  1.44837126e-02 -3.26774299e-01
  -1.22266032e-01 -3.78592342e-01 -1.18868783e-01 -7.12189227e-02
  -6.60210967e-01  2.35203519e-01 -5.44408739e-01 -3.49743962e-01
  -1.25326514e-01 -4.11157031e-03 -1.58551887e-01  4.27907109e-01
   1.48343518e-01 -1.77126527e-01  1.55204535e-01  6.28774539e-02
   9.52336714e-02  9.38747883e-01 -4.48801279e-01  3.64156067e-01
  -6.00296967e-02 -1.04170881e-01 -5.86750448e-01 -4.30029422e-01
  -7.69756176e-03 -3.05301189e-01 -9.69496891e-02  1.68550149e-01
   4.18526858e-01 -4.02225167e-01  6.57783508e-01  3.88967067e-01]
 [-3.22757512e-01  9.42716002e-01 -4.69120324e-01  6.42257929e-01
  -6.91923559e-01  1.14226031e+00 -2.93670088e-01 -3.71055394e-01
   4.05203968e-01  2.67870367e-01  5.95857091e-02  4.48511280e-02
   5.46502136e-02 -2.43651778e-01 -3.02765578e-01 -5.69840193e-01
   4.45158392e-01  3.76376770e-02  7.00825930e-01  5.97535968e-01
   1.90535158e-01  4.45843041e-01 -1.48844510e-01 -6.85076594e-01
  -2.50556082e-01 -9.07928705e-01  3.82404327e-01 -3.51072818e-01
   1.40302256e-02  4.39469308e-01 -3.85063350e-01  2.47927313e-03
  -6.50693402e-02  1.76073372e-01 -7.92841017e-01  9.22841370e-01
   3.25936258e-01  6.10905170e-01 -2.62327958e-02  3.73428464e-01
  -7.00661361e-01 -3.00132185e-01  3.10112178e-01  1.19252384e+00
   6.74019754e-02  1.23558648e-01 -7.43672848e-01 -2.54410356e-01
  -4.48356748e-01  8.98231566e-02 -4.74649668e-01  5.93227521e-02
   4.71540987e-01  4.70153183e-01  5.00352979e-01  7.17316717e-02
   9.51751590e-01 -8.22308734e-02  3.84227857e-02 -8.85183886e-02
  -1.15473673e-01 -6.90031797e-02  4.35953945e-01 -9.20165002e-01
   4.80576575e-01  3.48737389e-01  3.29452544e-01  2.50091255e-01
  -3.95053029e-01 -3.21946979e-01 -6.18455946e-01 -7.31869996e-01
  -5.07051945e-02  4.17221814e-01 -1.42590046e-01  7.65367091e-01
  -5.47125816e-01  6.17016673e-01 -3.72946143e-01  1.05588242e-01
   3.26858349e-02  1.91149905e-01  5.60247898e-01 -3.98566216e-01
  -5.94672799e-01 -2.56534461e-02  3.15757334e-01  1.93672627e-01
  -9.23029482e-02  7.29487389e-02  4.20890629e-01 -1.76871970e-01
   6.25040293e-01 -3.73858750e-01 -2.57219225e-02 -5.77324748e-01
   5.53155988e-02 -2.55583048e-01  1.09163476e-02 -1.36503577e-03
  -1.32942152e+00  2.91503400e-01 -3.13009620e-01 -4.00552183e-01
   2.66327143e-01 -6.86826035e-02 -5.57544947e-01  3.48714888e-01
  -2.79069096e-01 -5.88626027e-01  4.36674982e-01  3.01065445e-02
   6.98538348e-02  8.55323136e-01 -5.09264946e-01 -3.84728424e-02
  -7.46322237e-03  4.46912944e-01 -2.39741787e-01  1.65619522e-01
  -8.45926255e-02 -1.14585022e-02 -1.45486861e-01 -2.04597369e-01
   3.22745442e-01 -1.71114832e-01  7.22968519e-01  2.37728402e-01]
 [-1.79727778e-01  4.46327150e-01 -1.71517372e-01  4.27771360e-01
  -5.43863118e-01  1.29183221e+00  4.20062616e-02  7.06332922e-01
  -1.66419148e-01 -1.17725514e-01 -2.16121927e-01 -9.75586772e-02
   1.17728248e-01  2.24332094e-01  1.71995804e-01 -4.75258559e-01
  -8.20828006e-02 -4.68986556e-02  8.09787154e-01  7.88136065e-01
  -1.64306499e-02 -4.34525847e-01  8.63556936e-02 -3.08642954e-01
  -1.60911649e-01 -1.06803942e+00  3.53651792e-01 -2.63021797e-01
   4.64506865e-01  2.44736731e-01 -4.88840103e-01 -7.26112872e-02
  -3.47537637e-01  2.02559354e-03 -5.41762888e-01  7.62875438e-01
  -4.38322991e-01  4.66494232e-01  7.34724939e-01 -2.50773337e-02
  -1.27209699e+00 -1.40888974e-01  2.53126413e-01  5.39654970e-01
  -7.36711547e-02  2.42462397e-01 -4.60056126e-01  2.88812041e-01
   5.12654781e-02 -6.94427267e-02  5.61276041e-02  5.10185584e-02
  -9.61688533e-03  3.71457100e-01 -1.20921820e-01  2.96745509e-01
   7.29666591e-01  1.11813396e-01 -7.60247582e-04 -1.76594090e-02
  -1.22621797e-01 -3.74538563e-02  2.82052457e-01  3.53796810e-01
   2.92351842e-01  2.09891453e-01  5.06088197e-01  9.05257985e-02
  -4.71078187e-01 -6.52908310e-02  2.09642518e-02  2.69181520e-01
  -3.76796722e-01 -2.30641570e-02 -7.92579830e-01 -2.67887086e-01
  -3.07259947e-01  2.38705426e-02 -9.21455920e-01  4.49756831e-01
  -6.39750123e-01  2.92251538e-02  5.09438157e-01  4.66655910e-01
  -3.41376513e-01  9.69173089e-02  3.42111468e-01  4.36978638e-01
  -5.67356706e-01  7.02674389e-02  5.00989109e-02 -1.99436501e-01
  -2.60109723e-01 -8.61680746e-01  6.71239123e-02 -5.69330752e-01
  -1.12440102e-01 -1.93898901e-01 -2.83687443e-01  1.21199824e-02
  -8.25884700e-01  4.45531994e-01  2.96919961e-02  1.16804326e-02
  -5.39575994e-01 -6.31507039e-01  3.86837929e-01 -4.39556360e-01
   6.30509138e-01 -1.97012439e-01 -8.35826695e-01  3.27539146e-02
   3.10055241e-02  4.32875156e-01 -4.30096030e-01  1.55328840e-01
  -7.21606433e-01  8.87203038e-01 -2.75875092e-01  3.93342614e-01
  -7.15586320e-02  5.01659930e-01 -3.42137516e-02  7.07585454e-01
  -7.69579887e-01  1.10944130e-01  4.51435857e-02  3.17826033e-01]
 [-3.94621581e-01 -1.29631544e-02 -3.36728007e-01  1.07240155e-01
  -8.12733844e-02  1.02417469e+00 -1.95070788e-01  8.49133492e-01
  -6.25592232e-01 -9.11321998e-01  3.64352651e-02 -7.93895423e-02
   7.55673200e-02  8.55414793e-02  1.79805532e-01 -1.04322803e+00
   5.36347389e-01  1.39304833e-03  1.50545791e-01  6.28063560e-01
   9.38920528e-02 -7.28581607e-01 -2.00982556e-01 -1.36202574e-01
  -2.60556377e-02 -4.15411383e-01  5.99765837e-01 -1.84837237e-01
   1.22896910e+00 -1.42275989e-01 -4.76448715e-01 -1.55966319e-02
  -2.32510895e-01 -7.86785305e-01 -7.11974502e-02  7.22509995e-02
  -7.11907506e-01 -1.21146612e-01  3.59317690e-01 -1.62416443e-01
  -4.47329521e-01  9.40768719e-02  6.27296805e-01  4.04378355e-01
   6.93765283e-02  1.32166311e-01 -6.69075191e-01 -5.29953875e-02
   3.07156295e-01 -8.20686758e-01 -4.64493245e-01  4.98889610e-02
  -7.28466883e-02  6.61243439e-01  2.38171011e-01  6.84742332e-01
   4.77090448e-01  2.20711425e-01 -2.68250793e-01 -4.70550805e-01
  -1.59285679e-01 -6.22222386e-02  5.29673994e-01  3.19966972e-01
  -2.60380477e-01 -4.05043572e-01  3.04543793e-01  7.41642594e-01
   2.49700733e-02 -4.67759967e-01  1.56908035e-01 -1.78031579e-01
  -6.75238907e-01 -4.10948128e-01  3.02674510e-02 -9.24080431e-01
  -1.93450123e-01  3.45881470e-02 -9.95705724e-01  5.40647507e-01
  -2.51757830e-01  1.58085674e-02  5.01814246e-01  2.75399864e-01
  -6.30451083e-01 -6.18728772e-02  5.97072840e-01  3.41814339e-01
  -3.22699666e-01 -2.25447826e-02 -5.11008084e-01 -5.60845375e-01
  -8.65069211e-01 -5.99469721e-01  4.64434214e-02 -5.63386619e-01
  -3.38500813e-02 -1.39948115e-01 -5.64477444e-01  1.26490355e-01
   3.18896830e-01  2.39239678e-01 -6.72308803e-01 -3.06544334e-01
  -1.31495938e-01 -5.34102738e-01  1.69223756e-01 -1.86692715e-01
   6.71370983e-01  2.92542368e-01 -1.42678118e+00  3.69027331e-02
  -1.76258072e-01  8.79199803e-02 -5.77911437e-01  5.64701200e-01
  -2.17056230e-01  4.62107539e-01 -2.62357265e-01 -4.99091037e-02
   4.49940562e-03  7.95548856e-01 -4.25263271e-02  9.19935048e-01
  -5.29594123e-01 -5.95184386e-01  6.92059159e-01  8.39353383e-01]
 [ 1.92029856e-03 -5.26635312e-02  1.21541582e-02 -8.66096839e-02
   3.25521231e-01 -2.41894543e-01 -1.33073675e-02 -2.79088408e-01
  -5.41865349e-01 -4.65779245e-01  4.13180381e-01 -9.24655497e-02
   9.40293372e-02 -2.47795179e-01  2.12117746e-01 -1.32678187e+00
   7.47235656e-01  1.16175525e-02 -5.95320165e-02  1.29717529e-01
   1.67595834e-01  3.87050509e-02 -3.47545534e-01 -4.48669225e-01
  -2.12574005e-01  1.60762090e-02  7.37300813e-01 -5.47164738e-01
   4.28432673e-01  7.63450339e-02 -5.68930149e-01 -3.70164722e-01
   2.21768588e-01 -3.93786937e-01  5.66298664e-01 -1.77788928e-01
  -3.91672105e-01 -2.68860459e-01  7.72589087e-01  1.26284018e-01
   1.06713630e-01 -2.27561384e-01 -4.86671060e-01  2.09653482e-01
   3.79028283e-02  2.56143540e-01 -1.05367780e+00  2.57357419e-01
   4.81114745e-01 -3.60673130e-01 -1.22077391e-01 -6.14660531e-02
   2.51969516e-01  4.70901757e-01 -2.89956689e-01  3.24946612e-01
   1.10102616e-01  7.02451646e-01  1.48938045e-01 -4.25743759e-01
  -1.13544799e-01 -4.29868661e-02  6.38416857e-02  3.06270659e-01
  -4.36017334e-01  3.39502692e-01 -9.48521197e-02  4.78491038e-01
   2.94840127e-01 -5.63624278e-02  1.85103834e-01 -1.01734973e-01
  -4.12074834e-01  1.02301709e-01  3.39021057e-01 -3.12415123e-01
  -3.12999859e-02 -4.13685441e-02 -4.08344328e-01  4.20849733e-02
   2.70812482e-01  1.56561360e-01 -6.47897720e-02 -2.58812338e-01
   4.15129185e-01 -3.83379310e-01 -2.14343309e-01 -7.54326344e-01
  -1.80347309e-01 -4.29221168e-02 -1.18501283e-01 -9.18884039e-01
   1.84273437e-01  5.68868220e-01  7.15752393e-02 -5.00219762e-02
  -3.14859003e-01  4.42285746e-01 -2.42820516e-01  3.97406928e-02
   8.94733667e-02  1.49827987e-01 -6.70067310e-01 -6.22237980e-01
   3.73290144e-02  6.40270650e-01 -5.18979728e-01  2.48945117e-01
  -4.79147285e-01  3.13500464e-01 -4.65516686e-01 -5.62474132e-04
  -2.72190034e-01  3.40936005e-01 -4.28633034e-01  5.90235293e-01
   5.98761857e-01  1.68647051e-01 -2.00480253e-01 -2.34535009e-01
  -8.57629701e-02 -1.53634652e-01  7.08720554e-03  8.82737190e-02
  -1.99635386e-01 -2.57370323e-01  3.43750864e-01  3.31100166e-01]
 [-1.95190012e-01  3.42055082e-01  1.18592270e-01 -5.90665638e-02
   2.69357443e-01 -1.89504046e-02  1.80375934e-01  1.23305954e-01
  -8.02117825e-01 -6.56803071e-01  3.92339438e-01 -3.75809148e-03
  -1.81518383e-02 -3.11838090e-01 -7.61861354e-02 -6.60325825e-01
   6.63879752e-01 -7.67663941e-02  4.28737462e-01  2.31372446e-01
   8.82725194e-02 -2.72161245e-01 -4.38121051e-01  1.88493840e-02
  -1.66943595e-01  1.53431237e-01  5.30137777e-01 -1.01318550e+00
   6.76470160e-01  9.39275622e-02 -5.54594576e-01  8.49006027e-02
   4.84300613e-01 -3.38701867e-02  4.19470012e-01  2.12472335e-01
  -2.15006635e-01 -6.87016696e-02  6.71712995e-01  4.35506046e-01
   5.82884610e-01 -2.74605118e-03 -2.31604680e-01 -2.57303596e-01
  -7.22448379e-02  3.93982261e-01 -2.18169585e-01 -2.74503052e-01
   2.70651340e-01  9.09316242e-02  1.20061651e-01 -2.53976285e-02
   4.94531989e-01 -7.31763840e-02  2.97936976e-01 -4.71539795e-02
   4.08092260e-01  1.17234588e+00  9.35726583e-01 -4.34204042e-01
  -1.28596023e-01 -4.75248434e-02  1.91676229e-01 -2.49145955e-01
  -5.82273304e-01  3.36958647e-01 -1.68355852e-02  2.54795074e-01
   2.91197235e-03  3.98836344e-01  3.79110575e-02 -3.89863133e-01
  -7.17989564e-01  4.61752295e-01  6.20676875e-01 -5.69852665e-02
  -5.88619769e-01  3.01375419e-01 -1.98062733e-01  1.97678253e-01
   3.65376413e-01 -5.07112622e-01 -8.34829081e-03 -2.83543736e-01
   8.04775715e-01 -1.65268803e+00 -4.41582203e-01 -8.51252615e-01
   3.40367347e-01 -9.31408703e-02 -2.62841702e-01 -1.03857398e+00
   2.50259589e-04 -3.82010899e-02 -1.71351209e-02 -2.60722369e-01
  -5.40136814e-01  4.38028365e-01 -2.09268741e-02 -4.24312660e-03
   3.89061272e-01 -2.14082360e-01 -3.72214854e-01  9.27125141e-02
  -3.79586928e-02  9.39312041e-01 -4.41955656e-01  4.70188886e-01
  -7.83908844e-01 -2.40927830e-01 -2.92916179e-01 -5.79537526e-02
  -2.09897369e-01  3.22064370e-01 -2.60260433e-01 -2.62677044e-01
   6.11175001e-01 -2.25283802e-01 -2.01792136e-01 -9.13873240e-02
  -1.24469120e-02 -7.75250122e-02 -5.02930105e-01 -1.28951296e-01
  -1.58723414e-01 -2.85136223e-01 -4.03616667e-01 -1.54183179e-01]
 [-3.12414318e-01  1.34267344e-03  6.82986975e-02  1.02273270e-03
   1.02215774e-01  1.77442864e-01  2.68145233e-01 -4.42693233e-01
  -1.09801519e+00 -1.53511059e+00 -3.38572443e-01  3.74178998e-02
   2.43645217e-02 -3.12210172e-01 -7.35031292e-02 -6.80444479e-01
   1.89996660e-01 -4.44603078e-02  6.22240305e-01  1.99797422e-01
   2.20852330e-01 -8.27715158e-01 -4.58714545e-01 -1.88400839e-02
  -4.10486618e-03  4.37470675e-01  2.06303343e-01 -1.07537091e+00
   8.90407622e-01  7.29335519e-03 -6.48453355e-01  3.75588536e-01
  -5.20322053e-03  6.98949918e-02 -1.50530413e-01 -1.37467548e-01
  -7.50773847e-02 -3.67293298e-01 -4.40778613e-01  1.16260648e-01
  -3.07102632e-02  2.94687003e-02  5.41131020e-01 -1.69991031e-01
  -2.05538259e-03  2.62915224e-01 -6.35771096e-01 -1.09399509e+00
   5.08161902e-01 -4.16256115e-02 -1.79397743e-02 -7.56229237e-02
   7.36087918e-01  1.29191512e-02  4.90993112e-01 -7.90558755e-02
   6.90797120e-02  7.43449628e-01  9.76920962e-01 -8.54947791e-02
   3.04275639e-02 -3.01200487e-02  1.07185745e+00 -3.33113819e-02
  -5.39367914e-01  5.59048029e-03 -1.26595929e-01 -2.90050745e-01
  -3.49363722e-02 -2.12157369e-01  2.50377297e-01 -1.70428395e-01
   2.29816020e-01 -2.41296828e-01  4.62332815e-01  2.58525372e-01
  -1.74175799e-01  7.04517663e-01 -2.90035635e-01  9.78787899e-01
   3.75938863e-01 -9.71238792e-01 -6.94130719e-01  1.86272293e-01
   1.99297145e-01 -3.28215957e-01 -5.02875447e-01 -4.78833586e-01
   6.64179265e-01  3.83180566e-03 -1.08639407e+00 -4.55357879e-01
  -2.73344010e-01  2.54164577e-01  1.61674097e-02  2.66721457e-01
  -4.84773308e-01  4.30345029e-01  2.35694304e-01 -2.05786005e-02
   6.86357200e-01 -3.39514047e-01 -8.86491314e-02  3.15945834e-01
   1.28264442e-01 -1.47854919e-02  2.38421410e-02  1.01939225e+00
  -1.47378504e-01 -1.38888568e-01 -1.14824481e-01 -4.51841205e-03
  -1.68040320e-02  5.65587401e-01 -5.76244473e-01 -2.01853767e-01
   2.01336250e-01 -1.37674764e-01 -3.02897245e-01  4.67201084e-01
   6.52770400e-02  6.74306095e-01 -3.71282876e-01  1.52453050e-01
   6.60905063e-01 -7.24459529e-01 -1.25990927e+00  5.66312015e-01]
 [ 2.83057898e-01  2.51577765e-01 -2.78647035e-01 -3.13946784e-01
  -2.95120440e-02  9.41083655e-02  3.23256075e-01 -3.40099603e-01
   3.49193245e-01 -6.29023612e-01  7.26082027e-02  6.26885071e-02
  -9.32274982e-02 -5.10728694e-02  8.53510499e-02 -2.97216624e-01
  -1.03170462e-01  1.12847087e-03  2.81489342e-01  7.14617297e-02
   2.55205691e-01 -1.42750248e-01 -6.20566964e-01  1.04361027e-01
   4.66855317e-02 -1.56521589e-01  1.67834058e-01 -3.42753321e-01
   3.55575413e-01 -2.15558782e-01 -2.57734269e-01  1.67079508e-01
  -5.36301248e-02 -2.04132274e-01 -2.38679066e-01 -1.41773760e-01
   1.47230476e-01 -1.34570256e-01 -9.16386843e-01  4.83602136e-01
  -2.24820986e-01 -3.14031869e-01  6.72902644e-01 -1.81866512e-01
   3.94058898e-02 -5.88462055e-02 -5.74483991e-01 -3.92050982e-01
   6.79955065e-01 -4.84522879e-02  1.57242757e-05 -4.81952578e-02
  -3.43930419e-03 -7.74530843e-02  3.19940746e-02 -6.35214821e-02
  -2.16144532e-01  3.02688390e-01  3.81302297e-01  1.79549843e-01
  -7.92553723e-02 -9.91162732e-02  5.88262320e-01  3.54904324e-01
  -6.83203936e-01  2.14408711e-01 -2.12153748e-01 -5.74489653e-01
   1.61853284e-01  5.90496697e-02  2.68956453e-01  3.19670469e-01
   5.42743981e-01 -1.01447880e+00 -1.96246609e-01  7.92687118e-01
   4.18265820e-01  1.60680726e-01  1.09922834e-01  6.65589750e-01
   4.01398361e-01  5.02894148e-02 -4.48583633e-01  3.11745182e-02
   6.87733442e-02 -1.73000962e-01  5.41263223e-02 -5.37274964e-02
  -3.67882326e-02 -2.04767361e-02 -7.55131152e-03  8.81842077e-01
   2.99896657e-01  1.36937141e-01 -3.62551287e-02 -6.30705208e-02
  -2.35559657e-01  4.50960308e-01 -4.48847800e-01  2.41305213e-02
   6.18792959e-02 -1.18397593e-01  6.56286180e-01 -1.25138849e-01
   3.31273079e-02  9.29190367e-02  1.20330453e-01  2.28153914e-01
  -3.26737821e-01 -1.88373432e-01  3.67776692e-01 -1.82662159e-03
   4.09626663e-02  1.22195870e-01  1.06492274e-01 -1.21319860e-01
  -3.32413614e-02  2.38932282e-01 -4.31014031e-01  4.11242485e-01
   6.02092855e-02  3.65248263e-01  1.36584602e-02  1.69926301e-01
   4.66189057e-01 -2.66024470e-01  5.41482568e-02  4.23233986e-01]
 [-7.46096745e-02  5.98349392e-01 -9.57646906e-01 -2.54671693e-01
  -7.12013125e-01  4.93528470e-02  6.72869980e-01 -2.84246087e-01
   8.76176715e-01  5.90237975e-01  1.96146548e-01  1.88076813e-02
  -1.43224569e-02 -2.67153829e-01  1.09955154e-01 -2.00450838e-01
  -1.22636092e+00  5.78454174e-02  6.19412251e-02  3.31709206e-01
   2.81067137e-02  4.46639568e-01 -3.26429904e-01  1.92232117e-01
   7.70699158e-02  4.70701046e-02  4.47009616e-02  7.57226050e-02
  -1.15329551e-03 -3.08493435e-01  2.03796074e-01 -2.60547101e-01
   2.98885107e-01 -1.06094100e-01 -1.79353192e-01 -9.28073227e-02
   4.49817926e-01 -7.12425038e-02 -8.14232051e-01  1.46341220e-01
   2.27482572e-01 -2.32902274e-01  1.04920559e-01 -2.52640277e-01
   3.44817154e-02 -1.90483302e-01  1.05411902e-01 -1.21604688e-01
   1.84588477e-01  1.80438831e-01 -4.94233985e-03  4.39679623e-03
  -5.63374758e-01 -7.49232411e-01  1.30755782e-01 -4.95341659e-01
   7.07276344e-01 -2.50916004e-01 -2.52109259e-01  8.44183490e-02
   3.07972473e-03 -6.15773350e-02  2.79173136e-01  2.69306630e-01
  -8.71399164e-01  9.13242698e-02  3.97831976e-01  1.49658248e-01
   2.12417662e-01  1.23239040e-01  2.75287122e-01 -1.34447515e-01
   2.49120802e-01 -9.79384542e-01 -4.18275595e-01  2.27052450e-01
   2.67795175e-01  1.30409464e-01  4.39531863e-01 -1.87814549e-01
   2.18329474e-01  1.48205906e-01  1.23973094e-01 -4.88272868e-02
   2.78703645e-02 -3.74404758e-01  1.86995715e-01 -6.07463904e-02
  -2.25563705e-01 -5.93450665e-02  4.17430162e-01  1.40978411e-01
   6.26261652e-01  1.48139382e-02  6.61042705e-02  3.40947811e-03
   3.37739229e-01 -4.68362510e-01 -1.58442631e-01  1.61268022e-02
  -1.24331571e-01  2.31460169e-01  1.87813669e-01 -3.59995030e-02
   8.94135535e-02  2.72953689e-01  9.82965529e-02 -2.63390720e-01
   7.65421242e-02  6.64763749e-02  5.74507058e-01  2.19237357e-02
   3.36474106e-02 -1.02681838e-01  2.35204101e-01 -1.66659102e-01
  -1.04129866e-01  1.61707684e-01 -3.36775720e-01 -2.62561087e-02
  -2.14939080e-02 -7.77998194e-02  1.52112648e-01  1.95231244e-01
  -1.65285438e-01  3.57001781e-01  1.15812376e-01 -6.46825552e-01]
 [ 2.85448074e-01  4.91273224e-01 -7.15162158e-01  2.46570576e-02
  -8.93031120e-01  3.70471567e-01  6.04000330e-01  1.78519472e-01
   6.60180926e-01  3.89719188e-01  2.79463470e-01 -9.12979431e-03
   5.24618104e-02  1.08153537e-01  2.13416696e-01  5.49266696e-01
  -2.27474189e+00 -4.89851600e-03 -9.48846340e-02 -2.41507262e-01
   8.47610980e-02  2.39431575e-01  3.41524810e-01  3.57331753e-01
  -2.07999617e-01  3.26084048e-01  3.47245246e-01 -1.98506206e-01
  -9.03515041e-01 -2.87924945e-01  3.80845100e-01  4.55777377e-01
   2.32296258e-01 -3.41183513e-01 -4.39960986e-01 -9.87436399e-02
   2.97193319e-01  8.05496424e-02 -5.76216578e-01  1.71134174e-01
   2.57881194e-01 -5.14459133e-01  1.04907475e-01 -2.38369610e-02
  -4.50950414e-02 -3.28385502e-01  5.60203075e-01  2.84414560e-01
   3.88641089e-01  3.11551969e-02  3.94286245e-01  1.66484565e-02
  -3.75312477e-01 -1.61663860e-01 -1.42197251e-01 -5.24504125e-01
   8.98362339e-01  1.56820431e-01 -6.30586684e-01  1.16439737e-01
  -1.17800519e-01  1.42648006e-02  1.72161043e-01 -1.63986549e-01
  -1.53067315e+00  3.47544789e-01  1.28165826e-01 -2.47418389e-01
   1.81281794e-04 -1.77714720e-01  5.20381153e-01 -3.18685025e-01
   2.55814791e-01  1.96929157e-01 -7.27840424e-01 -2.06514373e-01
   3.10867637e-01 -6.15717947e-01  3.56792063e-01 -4.45419461e-01
  -2.85014242e-01 -4.48563904e-01 -9.10810232e-02  3.17654014e-01
   3.93818729e-02 -1.69392332e-01  5.04277527e-01  8.63897055e-02
  -8.04947391e-02  2.71650702e-02  2.18176976e-01 -4.38155860e-01
   3.35509449e-01 -2.55842566e-01 -1.10157048e-02  5.16170204e-01
   3.17599356e-01 -4.46692526e-01 -8.10708106e-02  9.39889997e-02
  -3.45427729e-02  4.50066358e-01 -1.37111858e-01  3.16766918e-01
   2.46768624e-01  4.62952107e-01  3.26461881e-01 -5.99108458e-01
   1.90076306e-01  3.61823887e-02  2.34951094e-01  1.61192566e-03
  -9.47891995e-02 -3.81594747e-01 -2.04964623e-01  2.16019183e-01
  -3.44389349e-01 -1.83920518e-01 -3.02790161e-02 -5.39702475e-01
  -6.10789098e-02 -2.95893133e-01  3.06826562e-01  5.35075188e-01
  -5.32854617e-01  6.38939500e-01 -3.97809595e-02 -8.75948071e-01]
 [ 2.49671787e-01  3.80223632e-01 -5.21475196e-01 -4.09057103e-02
  -8.57156515e-01  3.46170008e-01  6.37998581e-01 -6.34749979e-02
   6.81646585e-01  3.05462748e-01  2.02368885e-01  3.07629053e-02
   6.20051771e-02  1.93708569e-01  7.31545612e-02  9.45333183e-01
  -2.12916851e+00  2.41662413e-02 -1.94462210e-01 -3.32414657e-01
  -8.92938077e-02  7.18553439e-02  5.27019143e-01 -4.54623774e-02
  -2.79661198e-03  5.36363721e-01  3.50362152e-01 -2.90707141e-01
  -7.29057312e-01 -2.51295537e-01  3.84370774e-01  3.21635544e-01
  -2.38645989e-02 -2.87517577e-01 -4.28427994e-01 -4.25860465e-01
   4.21063423e-01  7.00310469e-02 -1.62408292e-01  4.60181564e-01
   3.83374929e-01 -6.28803253e-01 -2.08559558e-01 -5.27099855e-02
  -5.31937741e-02 -1.60476118e-01  5.82965255e-01  2.96859413e-01
   3.84924889e-01  4.78197634e-03  2.07294077e-01 -6.10270128e-02
  -4.54867035e-01 -1.96858555e-01 -2.92544901e-01 -5.38465083e-01
   9.55510914e-01  1.72569931e-01 -4.71897423e-01 -3.73727754e-02
  -1.17238760e-01 -8.71983245e-02  4.22945052e-01 -5.44838188e-03
  -1.47751617e+00  2.16506913e-01  8.52419809e-03 -3.12005907e-01
  -1.65519759e-01  1.46087538e-02  1.09550035e+00 -8.84447917e-02
   3.25319231e-01  3.60112071e-01 -1.09157670e+00 -1.23110875e-01
   3.67409855e-01 -8.38880599e-01 -1.35712743e-01 -6.24054968e-01
  -4.71060246e-01 -2.04142794e-01 -1.63346469e-01  2.89608568e-01
   1.28521174e-01 -2.15319041e-02  8.74700844e-01  3.54894787e-01
   1.88615307e-01 -1.97994523e-02  3.69162649e-01  7.00111827e-03
   1.05018258e-01 -1.97297424e-01  5.87715134e-02  5.16771853e-01
   3.62453997e-01 -3.31877261e-01  1.40825622e-02 -5.70303686e-02
   3.16254310e-02  4.43847865e-01  1.88397631e-01  9.07411724e-02
  -3.26679684e-02  4.33398217e-01  1.89269468e-01 -7.69797266e-01
   2.31121145e-02  2.70905465e-01  8.69872514e-03  3.39054912e-02
  -1.40561089e-01 -3.34494799e-01 -1.72541514e-01  2.42924795e-01
  -3.06829214e-01 -4.91805226e-01  2.06476957e-01 -4.71606731e-01
  -5.62258065e-02 -3.78691852e-01  2.42391989e-01  4.45692182e-01
  -6.94106579e-01  5.45829654e-01  2.69983499e-03 -6.71902716e-01]
 [ 6.01073503e-02  5.80799520e-01 -8.28135014e-01 -1.74077023e-02
  -7.68467069e-01  2.34664008e-01  3.57193112e-01 -7.60345012e-02
   8.62242103e-01  7.67931044e-01  4.60217416e-01  5.67999072e-02
  -1.01100698e-01  5.82480654e-02  1.55894026e-01  2.72630870e-01
  -1.44308424e+00  1.21923489e-02 -8.41905251e-02 -7.66548514e-02
   1.84012260e-02  3.41514051e-01  3.51139098e-01 -2.30031814e-02
  -4.69737221e-03  7.76940957e-02 -8.45120698e-02  1.81204379e-01
  -4.09434170e-01 -3.32110018e-01  2.07228094e-01  8.10588449e-02
   4.68618311e-02  2.32926071e-01 -3.10467809e-01 -9.79621485e-02
   1.32117525e-01 -3.70644569e-01 -4.31157649e-01  3.72950792e-01
   9.02597420e-03 -3.34738404e-01 -8.45533982e-02 -2.33006418e-01
  -6.02215230e-02  7.97669142e-02  2.98833042e-01  2.12484583e-01
   2.19688546e-02  1.99831024e-01  1.08306911e-02  8.04789886e-02
  -5.70975661e-01 -2.55935311e-01  1.03726275e-01 -4.38061267e-01
   8.34345043e-01  7.87391588e-02 -7.60021269e-01  8.88728425e-02
  -9.13947169e-03 -1.89381819e-02  1.15786530e-01  2.64826436e-02
  -1.21656275e+00  9.58839208e-02  1.14793718e-01 -3.85244451e-02
   5.18330857e-02  7.12585524e-02  5.73794365e-01  1.49483874e-01
   2.52262391e-02 -3.12689126e-01 -6.40450478e-01  6.27791211e-02
   1.14630349e-02 -1.87071949e-01  3.21420729e-01 -9.24098194e-02
  -1.71195686e-01  2.50452280e-01 -7.49645308e-02  1.74743176e-01
  -5.11186048e-02 -2.21446067e-01  3.06806862e-01 -2.02055559e-01
   1.78401306e-01 -6.72256574e-02  3.78204048e-01  2.60234803e-01
   5.77917039e-01 -8.69585201e-02 -8.59779492e-02  1.59051672e-01
   1.97224975e-01 -5.10036290e-01 -1.04085118e-01  3.04614715e-02
  -1.28647134e-01  3.67964417e-01  9.77809280e-02 -1.04859313e-02
   9.05570984e-02  2.18480691e-01  2.05188304e-01 -6.63158417e-01
   2.57813036e-01  3.90229970e-02  2.97493577e-01 -6.98757544e-02
  -3.24857309e-02 -2.27158107e-02  6.09602109e-02 -1.87526301e-01
  -1.46076560e-01 -2.76230462e-02  9.28887352e-02  7.23414868e-02
  -4.10817638e-02 -1.86568275e-01  9.94851291e-02  2.34093845e-01
  -4.04394984e-01  3.56857032e-01  6.63396940e-02 -7.15696037e-01]
 [ 5.61889708e-02  1.59076422e-01 -1.73524007e-01 -3.64355929e-02
   2.18756706e-01  3.54517996e-01  4.59589809e-01  1.48522872e-02
   6.39128923e-01 -1.00086309e-01  3.40092689e-01 -5.83185665e-02
  -1.02670521e-01  2.52326846e-01 -4.93274517e-02  7.00163394e-02
  -2.16479659e-01 -9.01403185e-03  2.05800414e-01  3.18045765e-02
   1.31513685e-01 -1.21908925e-01 -2.51769368e-02  5.20341694e-01
   1.07176416e-01  6.80117235e-02  6.36428362e-03 -8.39053094e-02
   1.69506177e-01 -1.19937651e-01  8.55153427e-02 -3.16201039e-02
  -1.36436224e-01  9.75283682e-02  3.34598601e-01  5.52041769e-01
   1.70891494e-01 -4.99532908e-01 -6.90982699e-01  4.06311423e-01
   2.29604647e-01 -1.37451813e-01  3.23492825e-01 -4.39634314e-03
   9.76383965e-03 -1.04264356e-01 -1.36245266e-01 -9.61299092e-02
   1.48958415e-01 -7.88085833e-02  3.86402919e-03  4.13325056e-02
  -1.61434993e-01  1.62072014e-02  3.71196687e-01  1.60787464e-03
   2.34344870e-01  3.65127295e-01 -3.63033354e-01 -1.43692881e-01
  -1.32672727e-01 -8.59854966e-02  4.12802815e-01  5.52885592e-01
  -1.13080251e+00  3.06405127e-01  1.56363577e-01 -4.64749902e-01
  -2.42947981e-01  1.86537594e-01  1.90536723e-01  5.39859653e-01
   8.24718028e-02 -1.00641298e+00  2.96379235e-02 -8.39071125e-02
   3.40788245e-01  5.55923060e-02  9.04336274e-02  8.63220334e-01
   4.25819516e-01  7.10905641e-02 -3.90048385e-01  2.02051386e-01
  -3.00192624e-01 -1.05305299e-01 -5.91271460e-01 -7.06909597e-01
   2.41253346e-01 -1.93250235e-02 -1.91671535e-01  1.38417795e-01
   1.25792995e-01  3.44194204e-01  6.31816313e-02  2.34791979e-01
  -2.27818444e-01 -2.72090346e-01 -5.25541544e-01 -3.47691067e-02
  -2.55022854e-01 -6.52321801e-03  6.37250468e-02  1.19552165e-01
   6.06434904e-02 -1.61339954e-01  2.27816477e-01 -2.18084544e-01
  -1.57831594e-01  3.86260718e-01  9.02237222e-02 -2.70318314e-02
  -2.59082988e-02  2.33261853e-01  3.60265002e-02 -2.45698482e-01
  -3.42586130e-01  1.07416682e-01 -4.40924853e-01  4.56972778e-01
  -1.01177264e-02  6.37230635e-01 -8.22786987e-02  4.97396499e-01
  -7.31773153e-02 -1.84513822e-01 -1.27440780e-01 -1.88124999e-01]
 [-2.28490189e-01  6.04267754e-02 -1.23509485e-02  1.92624465e-01
   4.39691931e-01  2.13206306e-01  2.94969112e-01 -2.56414264e-01
  -1.21377960e-01 -8.52329016e-01  2.69071609e-01  2.22695600e-02
   3.76718268e-02  1.24454103e-01  2.21256196e-01 -4.23717052e-02
   1.88366905e-01  3.38647924e-02  4.89563197e-01 -3.20335269e-01
   2.79918760e-01 -6.09160781e-01 -5.08263171e-01  4.82365519e-01
   2.76681930e-01  2.85723954e-01  1.13566235e-01 -3.47710341e-01
   7.24229455e-01  8.96596611e-02 -1.22702196e-01  3.77801210e-01
  -1.16999239e-01 -1.10926285e-01  2.09807888e-01  3.02245945e-01
   4.77957159e-01 -3.24259937e-01 -4.63147163e-01  2.33022481e-01
   1.13441728e-01 -2.77668715e-01  2.33016059e-01  1.79986842e-02
   4.87190709e-02  1.23379938e-01 -1.48531258e-01 -6.13947570e-01
   2.32646272e-01  1.29096135e-01  1.40420809e-01 -8.00156370e-02
   4.41631705e-01  2.80904248e-02  5.25659919e-01 -5.95093481e-02
   1.00834154e-01  2.02496171e-01  2.31718659e-01  2.66862452e-01
  -1.57656208e-01 -5.58233596e-02  1.63103923e-01  1.47289783e-01
  -7.48578250e-01  2.87504911e-01  1.83700800e-01 -3.53498012e-01
   1.98262874e-02  2.00696185e-01  3.87715757e-01  3.15683633e-01
   1.20549664e-01 -5.33484399e-01 -3.27521600e-02  3.23004931e-01
  -1.68381315e-02  1.64048418e-01  2.01405361e-01  5.08509517e-01
   4.22157913e-01 -7.67395437e-01 -2.74614692e-01  2.94303924e-01
  -9.36218053e-02  4.96529907e-01 -5.52639604e-01 -9.82619449e-02
   4.23412621e-01  2.38812529e-02 -8.95793259e-01  2.82701313e-01
   7.61647522e-03  2.38637373e-01 -1.81465503e-02  3.57478142e-01
  -6.47151589e-01  1.79598972e-01 -2.05864117e-01 -5.77375852e-02
   8.63860771e-02 -2.56364584e-01  3.44719052e-01  2.45522752e-01
  -3.90073806e-01  2.02345029e-01  1.66051090e-01  3.59375656e-01
  -3.81124496e-01  1.10072874e-01 -6.54248102e-03  2.43439004e-02
  -7.26440027e-02  1.69497877e-01  3.44574332e-01 -1.50047287e-01
  -1.56141952e-01 -2.68424839e-01 -2.09562540e-01  8.85316372e-01
   3.72080244e-02  5.88841200e-01 -5.54155827e-01  3.94226670e-01
   3.35990995e-01 -5.17216623e-01 -5.83526671e-01  1.66738167e-01]
 [-1.96212471e-01 -2.11940780e-02 -4.98871394e-02  5.91260865e-02
   2.39059746e-01 -2.52355278e-01  4.19135541e-01 -1.32554695e-01
  -6.20300531e-01 -5.49923122e-01  1.43355086e-01  3.19289565e-02
  -1.39705818e-02  3.43767107e-02  8.79750028e-02 -5.99384487e-01
   5.06951988e-01  3.62898335e-02  1.21142268e-01  1.03859203e-02
   1.23114079e-01 -5.68924367e-01 -5.23058474e-02  4.31044310e-01
   2.82530218e-01  1.47707015e-01  4.16814297e-01 -1.11271635e-01
   4.40755606e-01  5.36505952e-02 -6.03628993e-01  2.75451243e-01
  -2.44273320e-02 -5.78873873e-01  5.12887657e-01  4.57878679e-01
   6.06446266e-02  3.49468231e-01  5.42995287e-03  6.58657998e-02
   2.18150437e-01  1.62753239e-01 -1.89190462e-01 -2.87270039e-01
   2.11939812e-02  2.00161770e-01 -1.71285793e-01 -6.50768936e-01
  -1.08827382e-01  6.90265149e-02 -1.25470206e-01 -5.06563671e-02
   4.82319415e-01  3.90120625e-01  1.70526356e-01  2.51544565e-01
   1.36564732e-01  4.56780255e-01  5.69155633e-01 -4.59255725e-01
   5.01993112e-02 -1.15643375e-01  1.79331109e-01  8.98170099e-02
  -7.32639134e-01  3.67683113e-01  3.90424222e-01  2.92426012e-02
   4.47614610e-01  2.78937608e-01  3.59744020e-02  5.91413938e-02
   3.17478776e-02 -3.06073874e-01  1.22165635e-01  1.21473752e-01
  -6.02393560e-02 -1.17132701e-02 -1.72908410e-01  1.09627739e-01
   3.94931883e-01 -6.31789684e-01  5.28199337e-02  5.37257008e-02
   2.08308801e-01 -4.96548325e-01 -1.49122700e-01 -7.81164914e-02
   2.18126867e-02 -2.07689907e-02 -5.92724085e-01 -7.86220253e-01
   3.32407385e-01  8.84534866e-02  6.01944737e-02  2.59194057e-03
  -4.75070655e-01  5.29548049e-01  1.15919143e-01 -3.17370566e-03
  -1.27785861e-01 -3.00648987e-01 -3.49794328e-01  3.38810354e-01
   5.63707054e-02  1.73861638e-01 -8.16847458e-02  5.16220510e-01
  -5.12148261e-01  3.70458737e-02 -3.51232201e-01 -2.97858343e-02
  -3.43664438e-01  4.66078162e-01 -1.22282110e-01  7.83972815e-02
   2.97095597e-01  5.23929372e-02  4.35471088e-02  4.65248317e-01
  -6.69607334e-03  1.85080528e-01 -4.12320107e-01 -3.19795846e-03
  -3.45531479e-02 -4.71357316e-01 -3.72811407e-01 -2.23904406e-03]
 [-1.71172842e-01 -2.97484308e-01 -4.16733980e-01 -4.40313578e-01
  -2.09289901e-02 -5.54616936e-03 -7.30379075e-02 -2.09916070e-01
  -4.01896268e-01 -7.21822381e-01 -2.55209088e-01 -1.47146443e-02
  -2.11978536e-02 -2.04959363e-01 -7.98409209e-02 -1.81007251e-01
   6.89135849e-01  1.59383491e-02 -3.25594634e-01  4.64941233e-01
   5.77940941e-02 -4.51798648e-01 -8.42864871e-01  2.33556330e-01
  -5.75169921e-01  4.30436194e-01  8.37974429e-01  1.69280022e-02
   1.90031201e-01 -2.57737368e-01 -7.39584267e-01  3.94571185e-01
   1.27408460e-01 -5.55437922e-01  5.85331678e-01  2.89129972e-01
  -4.97633666e-01  3.32260095e-02 -3.23881991e-02 -1.55659050e-01
   6.88264549e-01  2.47935355e-01 -8.06661695e-02  2.94699252e-01
  -6.36551902e-02 -1.91168338e-02 -6.33176267e-01  4.59244639e-01
   6.50008768e-02 -3.87224823e-01 -1.66042328e-01 -2.21933089e-02
   7.50086367e-01  8.20144862e-02 -3.98889124e-01  2.07069784e-01
   3.02919418e-01  7.93187082e-01  3.79922360e-01 -2.96325952e-01
  -6.63056746e-02 -2.93194614e-02  5.37726879e-01  4.38640639e-02
  -5.47625244e-01  6.94171369e-01  1.30650222e-01  2.22572163e-01
   1.03700131e-01 -2.43460983e-01  3.53915244e-01  3.43023002e-01
   6.22809716e-02  3.14644128e-02  6.51763976e-01 -5.44268012e-01
  -1.39692560e-01 -3.59242827e-01 -7.43025601e-01  4.59250845e-02
  -1.42925695e-01 -2.36202449e-01  3.94228369e-01  2.60043681e-01
   5.96920922e-02 -5.49809217e-01 -2.60274649e-01  7.16507211e-02
  -3.80951226e-01 -2.25080620e-03 -3.37407351e-01 -3.73998106e-01
  -1.73669294e-01 -2.85432130e-01 -1.18589662e-02  5.08460850e-02
  -7.34816134e-01  2.29572296e-01 -9.02289674e-02  2.36659162e-02
   5.72265387e-01 -9.12999436e-02 -8.77725899e-01 -2.06976473e-01
   1.08447120e-01  5.57321668e-01 -3.00010622e-01  1.92161188e-01
  -2.16005057e-01 -9.07127112e-02 -4.17889446e-01 -7.37978518e-03
  -2.09366396e-01  2.96375513e-01 -2.91634768e-01  6.60696208e-01
   3.24752271e-01  1.16237514e-01 -3.05736184e-01 -1.91382200e-01
  -3.99433561e-02  1.87227726e-01 -9.62928757e-02  6.40686452e-01
  -4.20001924e-01 -5.61940610e-01  2.15390354e-01  2.11476833e-01]
 [-2.71851420e-01 -5.15893660e-02 -4.44259495e-01 -3.07932258e-01
   1.47740275e-01  4.82645869e-01 -2.44076073e-01 -4.51086223e-01
  -2.86024839e-01 -9.37184274e-01 -3.30456883e-01 -3.76994279e-03
   5.18805422e-02  8.11427757e-02  4.91677560e-02 -6.92945957e-01
   9.74459827e-01 -8.30289423e-02 -7.71946788e-01  1.93011060e-01
  -8.23981315e-02 -1.63099259e-01 -1.03218019e+00 -6.82284087e-02
  -7.38855720e-01  5.02833903e-01  6.46345198e-01  4.07218218e-01
   6.49364114e-01 -1.67298123e-01 -7.31881320e-01  1.46592095e-01
   1.01970304e-02 -9.09763932e-01  7.00038552e-01 -1.31108820e-01
   1.24138050e-01  7.57430494e-02  9.90625918e-02 -2.48757407e-01
   7.12529898e-01 -3.28966975e-01  4.65607271e-02  9.68926176e-02
   2.44826730e-02  1.02688022e-01 -5.88363707e-01  8.31324816e-01
   3.96208972e-01 -2.70188395e-02 -1.04367919e-01 -1.90885067e-02
  -7.29984492e-02  9.67859030e-02 -6.87270939e-01  6.10941887e-01
   6.77996427e-02  8.66685510e-01 -2.79364198e-01 -6.40096962e-01
  -1.45553043e-02  4.79220748e-02  2.00066760e-01  3.36544514e-01
  -2.45428085e-01  7.09432960e-01  4.34112502e-03  4.23635960e-01
  -6.04978502e-01 -2.15748146e-01  1.84021249e-01  5.16407549e-01
   3.80906500e-02 -1.81908086e-01  1.02016830e+00 -8.97030532e-01
   2.99922466e-01 -2.75237083e-01 -6.69430494e-01  7.64700413e-01
  -1.66290015e-01 -4.60600972e-01  4.30138767e-01  2.38329992e-01
   1.68121723e-03 -7.08667338e-02  5.50509930e-01 -1.88694030e-01
   1.67316571e-01  4.54832576e-02 -3.42453450e-01 -4.27673131e-01
  -9.47953165e-01 -5.20858824e-01  3.89679559e-02  9.95233953e-02
  -8.88291061e-01 -4.14579548e-02 -5.78698099e-01  9.38426182e-02
   6.82913005e-01  2.97260702e-01 -4.62733120e-01 -5.49307346e-01
  -3.07830125e-02  6.89545996e-04  3.48958932e-02  3.15647982e-02
   4.11416069e-02  3.54059279e-01 -8.49413395e-01  3.99254151e-02
  -8.31145570e-02  2.66265515e-02  8.99632797e-02  6.63178384e-01
   2.08538011e-01 -1.22664005e-01  7.60956760e-03 -1.81248109e-03
  -6.36594146e-02 -2.29476150e-02  3.39759476e-02  5.16880274e-01
  -9.40017641e-01 -2.73424655e-01 -4.37689349e-02  5.06340444e-01]
 [-1.37073845e-01  2.07885623e-01 -4.97381747e-01  4.40835714e-01
  -9.43364024e-01  1.22511244e+00  1.29824784e-02  8.27910542e-01
  -2.29955971e-01 -7.62424707e-01 -3.93706739e-01  1.41532896e-02
   6.27199858e-02 -1.03323728e-01 -1.99831173e-01 -4.03760165e-01
   4.14801121e-01 -4.95890155e-02  6.92341626e-02  3.81815225e-01
  -1.36936400e-02 -3.23714823e-01 -4.43040609e-01 -2.25328252e-01
  -9.09564853e-01 -2.15382770e-01  5.02448261e-01  2.43333697e-01
   6.10138178e-01 -9.25610885e-02 -5.64301074e-01  4.12722677e-01
  -3.19067061e-01 -5.16455472e-01  5.83891869e-01  4.54318970e-01
  -2.17618734e-01 -1.73210111e-02 -3.13142687e-02 -1.71682253e-01
  -1.38431802e-01  1.01237953e-01  4.54133272e-01  2.72860110e-01
  -1.33554370e-03 -1.03140116e-01 -4.95508671e-01 -1.71090737e-02
  -5.24863422e-01 -4.83402640e-01 -4.61948395e-01 -3.74264382e-02
  -1.88030824e-01  4.61046845e-01 -8.52413118e-01  4.70104218e-01
   5.80811322e-01 -2.16674775e-01 -2.54249930e-01 -1.03682065e+00
  -4.80812639e-02  4.51895185e-02  3.70533228e-01 -1.35139197e-01
   1.06999971e-01  5.70026278e-01  2.30253890e-01  2.94132829e-01
  -8.68564069e-01 -1.72631964e-01  2.10689202e-01  3.34389627e-01
  -3.23654264e-01 -2.00836509e-01  4.35396954e-02 -1.93446115e-01
  -5.73967576e-01  2.99602211e-01 -5.58657229e-01  7.36617208e-01
  -6.08945251e-01 -7.42196739e-02  4.99900192e-01  4.14981157e-01
  -4.49666351e-01 -4.41382438e-01 -3.65124166e-01 -3.21377739e-02
   1.14043467e-01 -3.68102901e-02 -5.28700233e-01 -6.80762887e-01
  -9.56958711e-01 -1.19889438e+00 -3.52429114e-02 -3.47514778e-01
  -5.39311826e-01 -2.79916137e-01 -4.44397420e-01  1.07092902e-01
  -4.34816815e-02  3.33992511e-01  2.60847986e-01 -5.99744320e-01
  -1.76971301e-01 -5.51690280e-01  1.44617138e-02  2.74341017e-01
   3.01062226e-01  1.25773922e-01 -7.79712737e-01  1.44572090e-02
  -2.15150312e-01  3.49548280e-01  1.53988123e-01  6.18051365e-02
  -6.81896389e-01  2.57922053e-01  1.31861091e-01  7.50632465e-01
  -5.29659316e-02  2.22180501e-01 -2.77548522e-01  1.11691952e-01
  -3.52003723e-01 -2.44418472e-01  3.73827875e-01  3.89455438e-01]
 [-1.39040366e-01  5.53989649e-01 -5.77996194e-01  1.16144168e+00
  -6.41981304e-01  1.13806283e+00 -4.71120447e-01  2.63899863e-01
   2.64579117e-01 -3.20458189e-02 -4.79316473e-01 -1.21398382e-02
   4.54895981e-02  1.89235747e-01 -3.42922390e-01 -1.41828850e-01
   1.98753595e-01  3.98147032e-02 -2.26190284e-01  5.75013995e-01
   1.57120883e-01 -7.58057460e-02 -3.03653806e-01 -6.41384870e-02
  -8.48341525e-01 -2.44081244e-01  6.35933518e-01  3.27145725e-01
   2.60546684e-01  3.51110756e-01 -3.27963203e-01  1.21710908e+00
  -2.86651284e-01 -2.22991362e-01 -2.78830588e-01  1.11184895e+00
  -8.42764080e-02  3.24884623e-01 -2.87976474e-01  1.03664398e-01
   9.89287794e-02 -6.26818016e-02  2.25953147e-01  6.26977563e-01
  -4.96000387e-02  6.54041618e-02 -3.20844948e-01  7.42223710e-02
  -5.97264528e-01 -7.44097866e-03  1.58429816e-01 -3.06628458e-02
   2.19361231e-01  4.90334898e-01 -3.68040174e-01  1.54979885e-01
   7.33923912e-01 -4.02043611e-01 -4.70853895e-01 -6.36001229e-01
  -1.71768352e-01  2.56886575e-02  3.55207920e-01 -3.37707311e-01
   2.40570247e-01  8.60982716e-01  4.08432990e-01 -3.67166042e-01
  -6.19694173e-01 -3.41149002e-01  1.32114917e-01 -4.42334861e-02
  -1.03529774e-01 -7.17000887e-02 -1.01243126e+00  4.58176732e-01
   2.86866635e-01  6.23120368e-02 -3.13383549e-01  2.49558277e-02
  -6.18174374e-01  8.65057018e-03  5.79058290e-01  5.22666536e-02
  -4.47727978e-01 -6.97759688e-01 -3.20941299e-01 -1.20453313e-01
  -2.37310049e-03  5.90352304e-02  2.25185812e-01 -7.09679902e-01
   7.34724626e-02 -7.33615756e-01 -5.20431325e-02 -4.69104141e-01
  -1.37691259e-01 -4.91647720e-01 -2.36805201e-01 -1.53438719e-02
  -8.09844673e-01  4.49913323e-01  2.03733742e-01  8.83475766e-02
   1.78064719e-01 -2.60766536e-01 -3.57580513e-01  1.50971368e-01
  -1.55069575e-01  9.36627612e-02 -3.32978934e-01 -1.47315264e-02
  -3.29620153e-01  1.92851126e-01  3.34415138e-01  5.49518585e-01
  -4.23704237e-01 -2.72145104e-02  9.96295661e-02  4.73603547e-01
   3.54136303e-02 -3.14780563e-01  5.23840249e-01  5.36920913e-02
  -1.55747876e-01 -1.88951865e-01  1.53133303e-01  4.16104257e-01]
 [-5.78396805e-02  5.28830945e-01 -1.29356697e-01  1.45031869e+00
  -3.87765557e-01  5.53224564e-01 -2.59904653e-01 -7.46002257e-01
   3.83612178e-02  1.44422948e-01  2.04731420e-01  6.33804873e-02
   6.51056990e-02 -9.28191990e-02  3.60296317e-03 -2.96278000e-01
   2.41286293e-01  2.53946912e-02  1.60607938e-02  7.33873785e-01
   2.69952506e-01  3.28853548e-01 -1.19856119e-01 -5.83362401e-01
  -5.51772177e-01  5.67926280e-02  6.01588905e-01  4.13553298e-01
  -1.16754368e-01 -1.06021598e-01 -1.38433829e-01  5.20145357e-01
   6.01799823e-02 -7.21180588e-02 -8.35207105e-01  1.01402974e+00
   3.15900266e-01  3.16762067e-02 -6.70706779e-02  5.01069248e-01
  -3.22368652e-01 -4.47593294e-02  5.57474792e-01  8.69334638e-01
   2.35921834e-02  1.63251430e-01 -5.44824779e-01 -1.05207590e-02
  -4.32857066e-01  8.74780566e-02  1.52271599e-01 -1.67156383e-02
   2.40838796e-01  2.37961307e-01  6.43342018e-01  1.50358696e-02
   7.17084110e-01 -3.65693450e-01 -2.98559040e-01 -7.20006883e-01
  -7.96348974e-02  2.52399519e-02  5.22419035e-01 -6.93192065e-01
   5.60713746e-02  5.92323720e-01 -1.90341309e-01 -7.02295005e-02
  -5.74543297e-01 -3.04527253e-01 -5.76148145e-02 -3.22752386e-01
   1.99893385e-01  2.44306967e-01 -6.09751046e-01  6.69915378e-01
  -2.19436839e-01  2.97076643e-01  2.06434250e-01 -1.66639283e-01
  -7.12544322e-02  3.55565548e-01  9.36206430e-02 -4.13733363e-01
  -5.73418513e-02  3.07230856e-02  6.94745407e-02 -1.58250332e-01
   3.18973094e-01  4.07331809e-02 -3.78837101e-02  1.71920210e-01
   3.73790354e-01 -1.25637457e-01  2.97800563e-02 -5.15641809e-01
  -1.22122705e-01 -5.72190881e-01 -2.59091496e-01 -5.78368604e-02
  -3.68644923e-01  2.57459402e-01 -1.53715864e-01 -4.68786359e-01
   3.10765594e-01  2.40239844e-01 -3.44954759e-01  3.56466889e-01
  -3.95684659e-01 -2.51522392e-01  2.69734174e-01 -4.24913317e-02
  -6.53179958e-02 -8.47973600e-02  1.57117158e-01  7.18661547e-01
   2.60616452e-01 -3.12672593e-02  8.68189186e-02 -1.18612193e-01
   4.88623157e-02 -7.03510225e-01  2.69463599e-01 -2.21890196e-01
   1.86951950e-01 -4.41293716e-01  7.62437165e-01  2.44045720e-01]
 [-6.05316423e-02 -3.49968076e-01  4.66079205e-01 -2.90665776e-01
  -2.71748036e-01 -4.84071160e-03  1.70971602e-01  7.10307598e-01
  -9.07864720e-02  7.95902908e-02  2.46722385e-01 -4.30339351e-02
   4.72048149e-02  3.73552710e-01  5.64941764e-02 -3.41650337e-01
   3.24495912e-01 -5.97882271e-03  1.67968735e-01  1.60718709e-01
   1.47866299e-02  6.56140208e-01  6.56929493e-01 -7.05833912e-01
   6.26570344e-01  4.17787820e-01 -1.63219005e-01 -1.10458694e-01
  -1.06594756e-01 -1.21232651e-01  2.03739241e-01 -5.78918815e-01
   5.98971903e-01  1.80567905e-01 -3.85526448e-01  7.51926601e-02
   3.62713546e-01 -4.79113549e-01  3.45783561e-01  6.32553399e-01
   8.65925290e-03  2.62953073e-01 -2.39731982e-01  6.36907995e-01
   2.20696833e-02  1.21714190e-01  3.40751112e-01  3.45318198e-01
  -3.23871285e-01 -1.14843436e-01 -4.33253944e-01  3.42817232e-02
  -1.21575549e-01 -1.45230174e-01  3.82028431e-01 -2.34126374e-01
  -1.91688776e-01 -1.21714979e-01  2.86698014e-01 -5.07431388e-01
   6.46414831e-02 -4.35582325e-02  3.55306238e-01 -4.19174701e-01
   3.23744297e-01 -1.98428303e-01 -1.82535976e-01  1.12292655e-01
  -1.20372906e-01  6.41565263e-01 -1.76476017e-01  8.42521042e-02
   3.50427687e-01 -1.95023462e-01  4.39111531e-01  4.81106132e-01
  -1.33230627e-01  4.06990759e-02  2.97787100e-01  3.02156210e-01
   5.45526743e-01  7.44251490e-01 -1.76047549e-01 -3.42224538e-01
   3.30193877e-01 -5.25728799e-04 -2.16508701e-01 -2.11682454e-01
   6.62370026e-01  2.06920784e-02 -3.12491506e-01  2.94125259e-01
   6.98026776e-01  7.70664439e-02 -6.29868731e-02 -6.68399155e-01
   4.86103088e-01 -4.74439532e-01 -4.82818007e-01  7.59462267e-02
   1.64766714e-01  3.56017441e-01 -3.62564504e-01 -1.80048794e-01
  -2.72379756e-01 -2.15024665e-01 -6.59255981e-02  1.81297943e-01
  -7.22518802e-01  1.54965311e-01  2.60092437e-01 -8.89424235e-03
  -1.16795242e-01  3.49735498e-01 -1.20634161e-01 -1.08027756e-02
   2.37927541e-01  2.68933345e-02  3.33902299e-01 -4.95011926e-01
  -3.88064384e-02 -4.32034642e-01  7.04724267e-02 -4.18576211e-01
  -1.51099851e-02 -5.63486457e-01  5.59621155e-01 -5.57590872e-02]
 [-1.39423534e-01 -2.40722537e-01  5.44262171e-01 -1.32753298e-01
  -1.37192309e-01  1.41127482e-01  3.42775881e-01  5.43539524e-01
  -2.16330364e-01 -1.34928286e-01  1.61178336e-01  7.40858242e-02
  -3.94795015e-02 -4.94605862e-02 -1.78303510e-01  1.71727881e-01
  -3.87441993e-01 -2.10242122e-02  4.37032998e-01  3.80361646e-01
   9.94167477e-02  5.47049008e-03  7.93901861e-01 -1.42632440e-01
   4.20232564e-01  2.19023794e-01 -5.89575410e-01 -1.94087669e-01
  -2.00121954e-01 -4.65403274e-02  1.96316585e-01 -1.03888655e+00
   2.86789089e-01  9.24402848e-02 -1.03591539e-01  1.56542212e-01
   2.27968737e-01 -4.16990131e-01 -8.48665386e-02  6.18368089e-01
  -5.70591807e-01  9.85404029e-02 -5.81049621e-02  6.03729606e-01
   8.24134126e-02 -1.05374351e-01  5.28973266e-02  5.75419128e-01
   4.14065152e-01 -1.90791622e-01 -3.35490741e-02  4.87475470e-02
   3.34452242e-02 -2.25377917e-01 -5.38180768e-02 -1.69555560e-01
  -5.06324284e-02 -1.12989962e-01  1.05284505e-01 -5.06381631e-01
   6.80424124e-02  6.41056523e-02 -1.25799373e-01  2.53121585e-01
   2.78979391e-01 -2.03481674e-01 -2.01472238e-01 -7.60178119e-02
  -7.18399659e-02  3.77687335e-01 -2.09524602e-01  2.58602679e-01
   1.21427499e-01 -4.13330272e-02 -2.34934598e-01  6.50320053e-02
   1.22042857e-01 -1.19588070e-01  2.95327548e-02  4.92288083e-01
   1.13323122e-01  6.48573458e-01 -3.21732968e-01  2.09997028e-01
   1.74037337e-01  5.32870740e-02  1.38230726e-01 -3.88413817e-01
   6.31196976e-01  7.49821216e-03 -1.48250610e-01  4.24626648e-01
  -2.70100296e-01 -1.92278877e-01  6.47584721e-02 -6.96852863e-01
   5.74981272e-01  1.55899618e-02 -5.56954861e-01 -4.89871241e-02
   9.47142839e-02 -1.09856725e-01  6.10949755e-01 -5.46156466e-02
  -2.99001873e-01 -2.69707799e-01  2.36154437e-01 -2.22770989e-01
   2.27196112e-01  3.48316014e-01  3.12456161e-01 -7.19008818e-02
  -4.74656671e-02  2.40277693e-01 -2.78978907e-02  3.33029985e-01
  -3.05222869e-01  4.61212218e-01  6.83309138e-02 -4.22618479e-01
   5.70317581e-02 -2.43225768e-01  2.15831012e-01 -4.07262683e-01
  -1.09452951e+00 -3.34903002e-01  6.10632181e-01 -1.75976083e-01]
 [ 2.49660432e-01 -2.14517325e-01  4.41923231e-01  2.41333041e-02
   5.53724393e-02  1.99847996e-01  3.79953943e-02  5.23892283e-01
   6.65078521e-01  5.27869821e-01  1.70295253e-01  6.79694042e-02
  -2.91626435e-02  3.77887078e-02 -8.88380483e-02  2.69959867e-01
   2.27029137e-02  8.09996352e-02 -6.12804964e-02  6.59639239e-01
   2.96755850e-01 -4.62458163e-01  5.46588480e-01  4.32701170e-01
   2.99987644e-02 -6.61633834e-02 -5.27825594e-01  1.85908481e-01
   3.40021282e-01 -1.30799472e-01  1.72300085e-01 -1.28870487e-01
   1.26768664e-01 -8.39177240e-03  3.65186095e-01 -8.25204551e-02
   3.55617136e-01 -5.14456816e-02 -3.24097961e-01  2.53046095e-01
  -1.47121876e-01  9.53540206e-02  3.15921098e-01  6.91542804e-01
  -4.72676381e-02  1.44602492e-01  8.74449760e-02  2.52346635e-01
  -3.33513170e-01  4.80750799e-01  4.58188742e-01  6.32079318e-02
  -3.89501840e-01  2.59685576e-01 -7.93210492e-02  1.38256386e-01
   9.54615176e-02 -1.11971095e-01 -2.08132580e-01 -2.99879730e-01
  -3.05322930e-02  6.75436631e-02 -9.00926217e-02 -5.23899421e-02
  -4.63901520e-01  5.22943027e-02  3.04831326e-01 -8.41496736e-02
   1.34229779e-01 -2.56589595e-02  5.44307172e-01 -1.16970450e-01
  -3.42093974e-01 -1.18673146e-02 -4.85913903e-01 -1.80292860e-01
  -2.96902865e-01 -5.29056005e-02  6.77074730e-01  3.14338744e-01
  -1.79804370e-01  7.31694818e-01  1.20486051e-01  4.77431297e-01
  -3.92082006e-01  1.92005277e-01 -2.57858574e-01 -2.80497819e-01
  -8.53016004e-02  2.13018730e-02  7.16044232e-02  1.27649661e-02
  -1.92950994e-01 -2.89056897e-01  3.72954160e-02  3.04086179e-01
   6.89946473e-01  1.51649669e-01  2.30621011e-03  7.16165826e-02
   4.64464463e-02  4.41479892e-01  3.40616971e-01  2.76866555e-01
  -2.30788384e-02 -3.33935946e-01  7.73699999e-01 -2.94635326e-01
   9.73326862e-01  6.24650419e-01 -6.08323812e-02  2.69956663e-02
  -1.64042469e-02 -1.56773254e-01  4.64816153e-01  1.66260488e-02
  -7.15739608e-01  1.43917084e-01 -4.71997671e-02  1.60372883e-01
   7.54523650e-02  1.62058859e-03  6.61971331e-01 -3.32982510e-01
  -6.38922632e-01  4.54035342e-01  3.40578884e-01 -3.63117486e-01]
 [-1.09703705e-01 -5.57571203e-02 -2.17877422e-02  2.63006628e-01
   2.21159026e-01  5.85510254e-01 -8.31967816e-02  4.97028172e-01
  -1.19046755e-02 -2.26131812e-01  3.89207393e-01 -8.04952458e-02
  -6.83832467e-02  2.72913612e-02  1.14480644e-01 -4.04396594e-01
   3.13430935e-01 -7.56188035e-02 -1.88588604e-01  3.65863591e-01
   1.40383579e-02  1.89369246e-01 -1.74221098e-01 -3.13984513e-01
  -1.16746025e-02 -2.73453027e-01 -7.53090084e-02  2.92186648e-01
  -2.36678645e-01 -2.30875611e-02 -3.42888892e-01 -2.98169523e-01
   4.63380784e-01  3.53020318e-02  1.86835498e-01  2.10402623e-01
  -2.16272354e-01 -5.20410836e-02  4.26341683e-01  1.69924051e-01
   5.99591911e-01  2.95230150e-01 -4.44877557e-02  6.47954047e-02
   7.79189393e-02 -2.81049311e-02 -2.04997495e-01  2.14447364e-01
   1.07926682e-01  2.04077084e-02  2.60717392e-01  2.68107727e-02
   3.86232704e-01 -3.56292635e-01  4.09266949e-01  1.23732232e-01
  -7.51442462e-02 -5.69273382e-02  2.57256627e-01 -3.16931009e-01
   2.77642161e-03 -5.36608845e-02 -4.83195856e-02  1.91266701e-01
   2.28890896e-01  1.74705744e-01 -2.87822694e-01  4.24269795e-01
  -1.48353323e-01  4.44173396e-01 -2.82213658e-01  8.33441764e-02
  -4.37140822e-01 -1.49197280e-01  4.42526102e-01  4.37835008e-01
  -3.60946208e-01  2.75246084e-01  3.13313633e-01  5.03153324e-01
   1.69518843e-01 -3.76015216e-01 -4.32856232e-01 -4.02489126e-01
   1.59186170e-01 -1.24817066e-01 -1.79634809e-01 -1.93202883e-01
   4.38808054e-02 -2.35285237e-02 -2.15079501e-01  3.47042046e-02
  -6.17090650e-02  3.96095008e-01  2.02626735e-03 -6.78352118e-02
  -3.99483800e-01 -2.48175219e-01 -4.30324167e-01 -6.52892888e-02
   4.72430773e-02  6.93763345e-02 -9.35534686e-02 -1.90653205e-01
  -5.00564873e-01  5.05428240e-02  2.76050925e-01  1.17165215e-01
  -2.80946773e-02 -5.48206627e-01  5.58827519e-01 -3.66271287e-03
  -7.90363252e-02  6.08026326e-01 -2.88243979e-01 -5.55856586e-01
  -2.26383254e-01  3.03425550e-01  2.98121601e-01 -1.02440022e-01
  -3.28246951e-02  3.69155928e-02 -2.12472439e-01 -3.15811723e-01
  -3.93403172e-02 -1.12576135e-01 -8.53448808e-02  2.08717391e-01]
 [-2.67753880e-02 -1.63524732e-01  5.47173666e-03  4.35755521e-01
   4.96131301e-01  7.66938746e-01 -3.27043235e-02  3.63612801e-01
  -4.04159576e-02  1.08922996e-01  8.18852723e-01 -4.73110750e-02
   4.32910211e-03  2.23292783e-01  2.12731808e-02 -2.96971321e-01
   9.64857817e-01  5.99772558e-02 -2.44834557e-01  4.77965385e-01
  -3.23218703e-02  5.88629901e-01 -3.43483384e-03 -9.33004439e-01
  -8.25621337e-02 -4.83940020e-02 -2.04516724e-01  6.17094755e-01
   3.35864425e-01 -2.72731539e-02  1.20103277e-01  3.25225890e-02
   5.99652171e-01  4.22238894e-02  5.65198436e-02  1.41033277e-01
  -5.37010375e-03 -1.39541239e-01 -5.88691533e-01 -5.66017702e-02
   3.86362344e-01  5.16373754e-01  4.14775670e-01  1.23869799e-01
   6.29737452e-02  1.00583352e-01 -2.48517722e-01  1.68356746e-02
   1.84108585e-01  3.91582370e-01 -4.17094350e-01 -2.79281028e-02
   1.53214231e-01  1.93247467e-01  7.11055815e-01 -2.47673057e-02
  -5.26948906e-02 -6.67755827e-02 -1.08971961e-01 -3.23333770e-01
  -3.80495936e-02  5.79945222e-02  2.88591590e-02  4.58135486e-01
   2.30997339e-01 -1.07847594e-01 -5.73700309e-01  2.01125026e-01
   7.50544155e-03  8.35573766e-03  3.04460563e-02 -2.31149450e-01
  -2.21578315e-01  5.36740348e-02  3.14479560e-01 -8.03298712e-01
  -4.63719606e-01  5.93454361e-01  8.26216996e-01  2.53999501e-01
   6.87979281e-01  2.68243492e-01 -2.22798496e-01 -5.84807396e-01
  -2.81134069e-01  2.00538978e-01 -6.06959648e-02 -2.91370973e-02
  -7.75641575e-03  1.86359733e-02 -1.30291268e-01 -3.98641795e-01
  -1.36884600e-01  7.72614837e-01  6.42674044e-02  8.39304864e-01
  -5.09401917e-01 -3.35833937e-01 -5.67844689e-01  3.15247774e-02
  -2.05368698e-01 -4.53312248e-02 -1.93579540e-01  4.27699178e-01
  -7.04338074e-01  7.92809844e-01  9.23494250e-02  3.15329552e-01
   2.74398565e-01  3.11332196e-01  8.32118332e-01 -1.98422186e-02
  -1.09299190e-01  6.22589171e-01  6.67783394e-02 -5.37837625e-01
  -1.82440251e-01 -3.62326741e-01 -6.95210323e-03 -5.27381182e-01
   6.68860152e-02 -1.55040696e-01 -1.06517881e-01 -3.93276364e-01
   3.82064641e-01 -2.21383706e-01  5.77457726e-01  5.97190000e-02]
 [-1.58888951e-01 -3.49404514e-01  5.85944831e-01  6.50891364e-01
   5.54225504e-01  9.73395526e-01 -1.62439048e-01  4.87260580e-01
   2.78199583e-01  4.83624227e-02  4.70140368e-01 -2.98524573e-02
   1.00221653e-02  5.78782618e-01  1.40686914e-01 -2.72512674e-01
   5.05143285e-01  5.52644059e-02 -4.08284485e-01 -4.94794160e-01
   1.07136071e-01 -7.26180756e-03  2.99723316e-02  9.47291683e-03
   4.73568857e-01 -9.44767520e-02 -4.05154407e-01  5.03300369e-01
  -5.49782775e-02 -1.83318719e-01  4.55570102e-01 -2.70246834e-01
   3.51072550e-01 -2.54069418e-01  1.01184815e-01  3.62962246e-01
  -4.27917570e-01 -1.82800158e-03 -1.23441957e-01 -2.46453747e-01
   5.06029166e-02  5.26694357e-01  2.38476172e-01 -1.95674732e-01
  -4.56099212e-02  9.07303244e-02 -2.02828109e-01  4.20249820e-01
   3.00535679e-01  2.71451205e-01  1.80332288e-01 -1.79344714e-02
   2.83729225e-01  5.21403849e-02 -6.95764840e-01  6.07039668e-02
  -2.16201261e-01 -1.34245858e-01  3.37682188e-01 -4.06375796e-01
   5.76619580e-02  9.95900705e-02 -1.09669268e-01  7.20429599e-01
   3.97496551e-01  2.13463023e-01 -3.44527572e-01 -9.08738971e-02
  -1.11696742e-01  2.34404385e-01 -1.07811980e-01  5.97236216e-01
  -2.35764503e-01 -7.97051340e-02 -6.02947354e-01 -1.03489868e-01
   5.52779198e-01  5.49531162e-01  8.86922300e-01  1.76264733e-01
   3.02919090e-01 -4.47622806e-01 -2.46180490e-01  2.45496500e-02
  -4.30533625e-02  4.46116358e-01 -1.15525886e-01 -2.88788676e-01
  -1.68924913e-01  2.15393510e-02 -2.12458298e-01 -8.91661867e-02
   1.55486576e-02  2.75211096e-01 -6.00181557e-02  8.83982837e-01
  -5.51646352e-01 -1.13724053e-01 -4.55922067e-01 -1.13818273e-02
  -3.61059904e-01 -7.35697821e-02  1.49690673e-01  6.84390962e-02
  -4.78536904e-01  4.52536494e-01  8.91891420e-01 -4.21758778e-02
   4.04328346e-01  9.89775836e-01  4.68419880e-01 -5.34920581e-02
   5.81369773e-02  7.08693922e-01 -5.03878407e-02 -3.93749088e-01
  -3.95090394e-02 -3.68025601e-01 -3.40773433e-01 -5.09261906e-01
  -6.61181882e-02 -5.85353732e-01 -4.33556020e-01  4.51967895e-01
  -9.94912982e-02  3.60024333e-01 -3.37739438e-01 -3.15231830e-01]
 [-1.12771139e-01 -2.14525849e-01  4.94171381e-01  7.41123706e-02
   4.13934976e-01  3.80122475e-02 -1.52566629e-02  2.46785253e-01
  -4.08915699e-01 -4.60871130e-01  7.90742755e-01  5.30330241e-02
   6.81875572e-02 -8.28553829e-03 -6.62604719e-03 -5.70422351e-01
   2.33223855e-01  1.18650943e-02 -1.35702953e-01 -2.24633008e-01
  -1.02377133e-02  4.74487871e-01 -3.40236992e-01 -6.98011339e-01
   3.15675765e-01  4.31568444e-01 -7.87211478e-01  5.97305655e-01
  -1.58083379e-01 -1.33884564e-01 -2.14238897e-01 -5.08220851e-01
   4.72522527e-01 -2.03916684e-01  5.69616556e-02  1.75320342e-01
   3.13852489e-01 -4.12822038e-01 -5.54040708e-02  1.22831918e-01
   1.68665797e-01  2.62149364e-01 -7.88365770e-03 -1.53968021e-01
   7.83925503e-02  4.93350206e-04 -3.70717078e-01 -3.88247855e-02
   1.75043747e-01  3.97016078e-01  1.10719606e-01 -3.68888713e-02
   8.23993146e-01  4.39267159e-02 -9.42715779e-02  8.63651708e-02
  -1.53836951e-01 -1.42810315e-01  1.53781548e-02 -3.40267897e-01
   3.19112204e-02 -6.71962425e-02  3.02447885e-01 -3.76388043e-01
   5.38042247e-01  1.67532906e-01 -5.21650851e-01  4.23478186e-02
  -1.94442254e-02  4.49266694e-02 -5.76955557e-01 -2.99164027e-01
   7.00658411e-02 -2.02482626e-01 -3.29058059e-03  7.86928385e-02
   8.50677565e-02 -1.96387231e-01  2.90440381e-01  3.93354148e-01
   1.28593728e-01 -4.59962070e-01 -4.23163086e-01 -5.99262357e-01
  -2.70767927e-01 -1.39677614e-01 -1.86087161e-01 -3.90422821e-01
   1.54048383e-01  5.50271124e-02 -3.42397422e-01  1.12167314e-01
  -3.88282180e-01  5.52075803e-01  7.52133727e-02  6.76451862e-01
  -5.42440951e-01 -5.95285594e-01 -4.82693434e-01  2.56424043e-02
  -3.12773257e-01 -6.26905084e-01  6.17478848e-01 -1.72556221e-01
  -6.38278276e-02  5.02069294e-01  4.53946218e-02  6.45328164e-02
   4.91117895e-01 -1.12045985e-02  8.35336924e-01 -6.77046478e-02
  -2.25636233e-02  2.69828230e-01 -9.44615155e-02 -3.74238849e-01
   4.97102737e-01 -4.32388872e-01 -3.09263933e-02 -8.94309282e-01
   6.45938143e-02  1.34918436e-01 -5.58066249e-01  9.48295966e-02
  -6.36111557e-01 -4.23110008e-01  1.52771339e-01 -2.71425605e-01]
 [-4.07416411e-02  3.50039065e-01  1.41278118e-01 -3.83779943e-01
   4.12187204e-02  9.67706680e-01 -3.50958332e-02  4.21456218e-01
  -4.73538786e-01 -2.95200914e-01  5.15558898e-01  9.32503492e-02
   8.28431398e-02 -3.12187821e-02 -2.69451261e-01 -7.81797469e-01
  -4.92764525e-02  2.59920061e-02  4.73584324e-01  5.71617961e-01
  -2.13912994e-01  2.31285617e-02 -2.88936257e-01 -4.35862631e-01
   4.21736747e-01  6.47766352e-01  2.18922064e-01  3.39027911e-01
   2.70559132e-01  2.60687649e-01 -4.02862281e-01 -6.00607336e-01
  -3.56760472e-01  3.65144819e-01  9.56473313e-03  1.86493203e-01
   1.28318265e-01 -6.10963821e-01 -1.63353756e-01  2.49959216e-01
  -1.96634755e-01  2.65648365e-01  6.62124872e-01  3.27862531e-01
  -2.65130363e-02  1.13514826e-01 -5.69837451e-01  4.13270891e-01
  -5.47848880e-01 -2.50669330e-01 -5.35406113e-01  3.11659500e-02
   3.41856480e-01  2.99194455e-02 -1.14470557e-03 -4.05884176e-01
   1.82406828e-01  1.38881028e-01 -1.64944485e-01 -7.47167408e-01
  -1.00216813e-01  2.57148426e-02  1.98477432e-01 -2.19187632e-01
   6.06727600e-01  3.64214092e-01 -6.03338003e-01 -1.70780107e-01
  -2.43592247e-01  1.16773397e-02 -4.95881647e-01 -3.40622887e-02
   1.86383396e-01 -3.46941411e-01 -3.27105492e-01 -1.14953004e-01
  -3.20134372e-01  5.61621726e-01  2.97085613e-01  2.88863126e-02
   1.60097450e-01 -3.59214395e-01 -2.27234393e-01 -3.47509384e-02
  -3.71008456e-01 -5.75102448e-01 -9.68207270e-02 -5.07685602e-01
   3.28959972e-01  6.88638613e-02 -4.65659112e-01  1.08067319e-01
   4.45786864e-01 -9.02644843e-02  2.60031801e-02 -2.13101357e-01
  -1.26479915e-03 -3.54173750e-01 -3.51234585e-01 -3.53847370e-02
  -5.25623262e-01 -2.73100913e-01 -4.48162965e-02 -5.35084009e-01
  -6.02322705e-02 -1.21825397e-01 -5.60615301e-01  5.14655560e-02
  -3.38925458e-02 -2.68397093e-01  4.01102364e-01  7.53147155e-03
  -3.44706066e-02  2.01930836e-01 -1.16471224e-01  1.26902759e-01
   5.68668880e-02 -3.08152944e-01 -2.63810337e-01  5.07119238e-01
  -1.44452676e-02  4.65117723e-01 -2.52986461e-01  4.23921704e-01
   2.53898054e-01 -6.13993645e-01  1.08026108e-02  1.70184135e-01]
 [-4.37180907e-01  9.04007018e-01 -3.16928416e-01  3.15057904e-01
  -8.25262815e-02  2.08835810e-01 -3.91362399e-01 -9.19105947e-01
   1.73924759e-01  2.36616254e-01  1.44280374e-01  7.22659156e-02
   4.79740128e-02 -4.86069500e-01 -4.96985435e-01 -6.71168685e-01
   2.32166111e-01 -1.98818222e-02  4.44591910e-01  1.14866458e-01
   1.01647422e-01  7.87872076e-01  2.06918851e-01 -6.33688986e-01
   4.47694063e-01 -2.57833511e-01  7.95187056e-02  1.71461225e-01
  -4.92262900e-01  3.52842301e-01 -3.09338897e-01 -1.54526263e-01
   1.72532462e-02  4.81511325e-01 -5.66002011e-01  8.34540546e-01
  -2.96601057e-01  3.45279902e-01 -3.34254384e-01  2.35393748e-01
  -3.85525882e-01 -2.36539647e-01  3.02292049e-01  7.47553527e-01
   1.36032673e-02  2.51594722e-01 -1.10270452e+00  1.64768755e-01
  -5.14451504e-01  4.89944406e-02  2.17658691e-02  8.02862644e-03
   2.72108614e-01  3.13658059e-01  6.98109567e-01 -1.72540992e-01
   9.31699514e-01 -5.09615898e-01 -1.33671351e-02 -3.01524669e-01
   6.69617429e-02 -1.08169727e-01  1.57120436e-01 -6.15067959e-01
   3.29104871e-01  9.46601108e-02 -1.27641380e-01 -3.18196863e-02
  -3.19463462e-01 -4.01251674e-01 -4.16028321e-01 -7.78698742e-01
   8.41228440e-02  3.07264924e-01 -3.49130660e-01  3.23691070e-01
  -5.54876208e-01  6.43338859e-01 -1.57120198e-01 -5.70373595e-01
   1.33077592e-01  6.49223626e-01  5.65416515e-01 -4.99453932e-01
  -3.46629262e-01 -1.35534436e-01  1.78792715e-01 -2.03731731e-01
   2.77861804e-01  3.43758017e-02  2.03670323e-01  9.58572850e-02
   4.09363896e-01  2.00150356e-01  6.37695789e-02 -4.99583244e-01
   5.00271142e-01 -5.05018413e-01 -2.86237419e-01 -6.53147921e-02
  -8.06740969e-02 -2.03486029e-02 -3.10696065e-01 -3.77302885e-01
   2.78900266e-01 -5.31321838e-02 -9.03810561e-01 -4.59494116e-03
  -1.17216744e-01  2.79026721e-02  4.89191085e-01  2.06497833e-02
  -3.90085801e-02  4.77462381e-01 -4.81652349e-01  1.86225176e-01
   1.25008970e-01 -1.76563069e-01 -1.31406367e-01 -6.94588542e-01
   3.47980037e-02 -4.32319082e-02 -8.40937123e-02 -4.75124427e-04
   5.71751595e-01 -3.23607862e-01  5.88407099e-01  1.23639062e-01]
 [-2.83679008e-01  8.62447619e-02 -3.61999810e-01  1.37942359e-01
  -3.37954134e-01 -2.03965995e-02  1.82003137e-02 -6.91486716e-01
  -6.64674565e-02  5.59039831e-01 -1.59576386e-01  3.03298924e-02
  -2.49396339e-02 -4.74585406e-02  1.51410297e-01 -6.16604388e-01
   3.22058976e-01 -6.35852963e-02  4.50479865e-01  5.10334134e-01
  -1.13405939e-02  3.17521572e-01  2.22357497e-01 -1.37846947e-01
   1.99151725e-01 -2.63027608e-01  1.73252866e-01 -6.25482434e-03
  -2.26419941e-01  2.19623268e-01 -1.50216604e-02 -4.53907877e-01
  -2.58607090e-01  3.89532149e-01 -2.96523273e-01  4.10825253e-01
  -6.44045293e-01  4.82656002e-01  6.11886263e-01 -4.48996872e-01
  -5.29973924e-01 -2.94600308e-01  1.81471094e-01  4.89895582e-01
   4.15113792e-02  1.96822196e-01 -5.04556775e-01 -1.15356147e-02
  -2.20054433e-01 -2.68270195e-01 -2.33904973e-01 -2.44830213e-02
  -6.34805560e-02  2.49384269e-01  5.45800865e-01  4.28534120e-01
   6.89970732e-01  1.13279708e-01 -2.01594293e-01 -3.71117830e-01
  -1.62472770e-01 -2.12737359e-02  2.19468191e-01  3.00109655e-01
   2.39128962e-01  1.32056743e-01  5.82058020e-02  7.37318918e-02
  -2.21930087e-01 -3.74210745e-01 -9.35237259e-02 -1.70681611e-01
   1.13996282e-01  9.31514520e-03  9.84818861e-02 -5.85803352e-02
  -2.24937022e-01  2.11257949e-01 -6.78956151e-01 -9.45979282e-02
  -1.86783895e-01  4.54276651e-01  4.36607659e-01 -6.75283596e-02
   2.39896476e-01 -2.66686529e-01 -1.98212042e-01 -2.86644548e-01
  -8.01725313e-02 -4.17508446e-02 -8.96539688e-02 -2.66662151e-01
  -1.48299918e-01 -5.17545104e-01 -6.76842183e-02 -9.01808679e-01
   3.46156418e-01 -9.07015651e-02 -1.18627794e-01 -1.06744859e-02
  -2.76054829e-01 -5.17972112e-02 -2.63293087e-02 -1.20426916e-01
   1.28012583e-01 -7.65926659e-01 -3.95085424e-01 -1.69554323e-01
   6.36896789e-02 -2.23347768e-01 -3.89291584e-01 -6.56200722e-02
   1.42200068e-01  4.57152843e-01 -4.94320601e-01  5.10294914e-01
  -1.31656632e-01  7.94676840e-02  1.48973884e-02  2.94332594e-01
  -6.10352159e-02  1.68317914e-01  2.77026325e-01  8.59792531e-02
  -1.91919953e-01 -5.81159413e-01  4.05901581e-01  2.52278060e-01]
 [-3.92546058e-02  1.67040914e-01 -6.30190432e-01 -1.64446518e-01
  -8.07089090e-01  6.07687831e-01  8.25538337e-02  7.72053421e-01
  -4.00589347e-01  4.72793847e-01 -3.05712283e-01  5.96001782e-02
   5.66039607e-02 -1.00760080e-01  2.25409940e-01 -7.16022551e-01
  -1.17386132e-01  1.20582059e-02  1.67298943e-01  6.95151746e-01
   1.09326348e-01  5.20544887e-01  3.28280091e-01 -1.70782223e-01
  -3.99253368e-01  3.34382653e-02  2.21375540e-01 -2.82656431e-01
   4.84465882e-02  2.89032280e-01 -1.03573151e-01 -5.46883106e-01
   6.20048009e-02  7.85842836e-02 -8.22670311e-02 -3.06473136e-01
  -6.43119633e-01  1.80846557e-01  3.10240954e-01 -2.27488905e-01
  -4.16446656e-01 -5.35250530e-02  4.05374199e-01  3.50972235e-01
  -6.27353787e-02  2.08107442e-01  4.99922365e-01  2.78520256e-01
  -1.86712652e-01 -4.56146717e-01 -7.89404333e-01 -1.66567713e-02
  -1.76788121e-01 -3.08170527e-01  3.04283142e-01 -1.58503965e-01
   5.61810195e-01  1.39614448e-01  5.02166115e-02 -3.44994385e-03
  -8.63526985e-02 -6.71098102e-03  1.90936625e-01 -3.66839856e-01
   8.53229836e-02 -1.83636442e-01 -1.51918670e-02  1.70620695e-01
   5.28915375e-02 -2.91278958e-02 -1.17973402e-01 -1.21888623e-01
  -4.94441986e-01 -3.34926218e-01  3.13112922e-02  4.05536816e-02
  -4.47017342e-01  1.20052010e-01  1.08546555e-01 -3.09499621e-01
  -5.06578207e-01  4.33633715e-01  4.30342615e-01 -7.47286379e-02
   3.82664502e-02  5.17089784e-01 -1.98786128e-02 -1.03433445e-01
  -9.99715626e-02  1.96550302e-02 -5.59333205e-01 -7.51304507e-01
   1.67608887e-01 -5.89760303e-01 -8.54819939e-02 -7.00002968e-01
   1.83360040e-01 -3.89524907e-01 -4.30386811e-01 -2.79746354e-02
   1.53830452e-02  2.93849260e-02  6.00210158e-04  1.04054056e-01
   1.71192497e-01 -8.03722814e-02 -4.69621927e-01 -1.73649624e-01
   4.01992239e-02 -4.62770224e-01  7.87188187e-02  7.10134134e-02
   9.19906944e-02 -5.39368629e-01 -6.18247151e-01 -1.27843872e-01
  -8.52199376e-01  4.89636362e-01 -2.37523273e-01  1.38258010e-01
  -5.77384345e-02 -3.30000520e-01  6.82619393e-01 -5.29933050e-02
  -1.07838713e-01 -7.24476874e-01  3.23425055e-01 -2.94436097e-01]
 [-4.37655561e-02 -9.80559364e-02 -4.77328271e-01 -4.46438938e-01
  -1.63154304e-01  1.74526140e-01 -1.20899402e-01  1.06307883e-02
  -1.09226441e+00 -7.27347732e-01  4.01257306e-01  9.35049541e-03
   4.91103344e-02 -2.00289771e-01 -7.70825446e-02 -1.01334107e+00
  -3.62389803e-01 -3.89725305e-02 -6.45862019e-04  2.21597105e-01
   4.92133200e-02  2.83501029e-01 -5.23092411e-02 -3.64394307e-01
   2.25489199e-01  2.35973701e-01  8.25399607e-02 -5.15698314e-01
   3.77823949e-01 -2.23791283e-02  1.57153055e-01 -4.20690328e-01
   2.61719733e-01 -3.69339406e-01  2.25918982e-02 -4.05277818e-01
  -4.40150976e-01 -5.17670333e-01  1.80135548e-01 -3.28830481e-01
  -1.79652035e-01 -4.52884167e-01 -1.35741420e-02 -1.56024992e-01
   7.03702196e-02  1.12900406e-01 -2.89952487e-01  1.14694431e-01
   1.61617249e-01  1.30836010e-01 -2.87036985e-01  9.16361064e-03
   4.84232418e-02  6.09800853e-02 -1.06620729e-01  9.90410224e-02
   2.86771119e-01 -2.17662081e-02  1.97274387e-01 -2.75265962e-01
  -3.86696905e-02  3.12741124e-03  1.87656939e-01 -2.11166255e-02
   1.74328148e-01 -4.83422041e-01  1.69962883e-01  1.91038013e-01
   3.20127070e-01 -2.93977648e-01 -2.47549638e-02 -3.07965100e-01
  -1.55204892e-01 -3.70804876e-01  3.28400075e-01 -3.83206606e-01
  -3.31981331e-02 -9.57313031e-02 -3.77844349e-02 -6.23143427e-02
   1.74246892e-01  1.01071186e-01  1.96753964e-01 -1.37436047e-01
   2.91148245e-01  5.09157777e-01  8.08134526e-02 -1.89018294e-01
   3.56312215e-01  2.88568903e-02 -5.48999488e-01 -6.02328777e-01
  -5.31674385e-01  3.80537808e-01  1.20002963e-02 -5.55981100e-01
   3.75072844e-02 -1.26847684e-01  1.08645402e-01  5.89792803e-02
   3.18991721e-01  3.17408182e-02 -3.71209592e-01 -1.57033503e-01
  -5.22459624e-03  3.12425137e-01 -7.41786838e-01  2.49334440e-01
  -8.35709050e-02 -1.16026498e-01 -1.10521391e-01 -3.48020755e-02
  -3.22914459e-02 -8.03654611e-01 -5.92240751e-01  1.98346436e-01
  -1.62756532e-01 -1.40127525e-01  9.12114084e-02 -2.68641770e-01
  -3.01914313e-03 -2.82095045e-01  4.70330209e-01 -1.65548056e-01
  -4.84728031e-02 -7.50576317e-01 -2.32814804e-01 -1.27357066e-01]
 [-1.40093267e-01 -1.86050102e-01 -2.93655008e-01 -3.81368876e-01
  -4.10734266e-01  2.57640511e-01  3.82680714e-01 -3.78995866e-01
  -8.76062095e-01 -4.06680763e-01  5.97079396e-01  8.04674923e-02
  -4.60695177e-02 -1.81688249e-01 -1.14105150e-01 -7.22331583e-01
  -1.08669184e-01 -2.80213952e-02 -1.94793552e-01  3.85899156e-01
   1.49323791e-01  2.86182463e-01 -2.80851871e-01 -3.30170661e-01
   2.66040266e-01  4.06214535e-01 -1.46422327e-01 -3.87325585e-01
   3.13117921e-01 -1.57619908e-01  2.96072662e-01 -3.64091158e-01
  -3.45699228e-02  7.54992962e-02 -6.23663515e-03 -4.81284380e-01
  -5.20085275e-01 -4.42088753e-01  4.10860538e-01  5.74092984e-01
  -1.04695685e-01 -1.84485212e-01  2.39331797e-01  9.06526223e-02
  -7.67699210e-03  1.50074752e-03 -8.95163059e-01 -3.56997311e-01
   1.99563652e-01  3.01210344e-01 -2.52846330e-01 -2.58011371e-03
  -5.62210754e-02 -5.50412893e-01 -3.91737446e-02 -6.07467145e-02
  -1.74989086e-02 -1.10403784e-02  3.13498616e-01 -3.67382854e-01
  -6.52742162e-02  4.31351252e-02 -5.87606251e-01  1.07886747e-01
  -4.42339569e-01 -1.83161408e-01  4.84035872e-02  5.09308949e-02
   9.92879942e-02 -5.33353798e-02  6.27390519e-02 -2.14088738e-01
  -3.11518312e-02 -4.12936993e-02  4.77910250e-01 -1.59563702e-02
  -7.77662769e-02  1.53928950e-01  2.63010710e-01  2.26591721e-01
   5.43113947e-02  1.39021084e-01  3.40337642e-02  4.84534651e-02
  -1.12581536e-01 -4.02352154e-01 -5.53903937e-01 -1.03388023e+00
   5.53665698e-01 -3.22901644e-02 -3.57006907e-01 -1.41459167e-01
  -2.00668424e-01  3.64337042e-02  3.50565240e-02 -5.10298967e-01
   2.44636253e-01  1.87004562e-02  4.30614710e-01 -3.57363224e-02
   2.44702891e-01  5.68745136e-02 -1.25779271e-01 -1.18100435e-01
   5.40818274e-02  1.10917948e-01 -4.37132567e-01  2.31972620e-01
  -2.99768955e-01  3.23563479e-02 -5.27112484e-02 -3.27497981e-02
  -1.52973495e-02 -1.32762417e-01  1.50114857e-02  7.66278356e-02
  -3.53158981e-01 -7.56918937e-02  2.01873928e-01 -9.39975008e-02
  -3.17214765e-02  7.50965327e-02  4.85593110e-01  5.32246381e-02
   4.62438613e-01 -4.63112712e-01 -5.50827384e-01 -6.08621687e-02]
 [-7.81926364e-02 -3.75457555e-01  1.65784761e-01  4.25311714e-01
   1.91746354e-02  5.09686172e-01  3.38101029e-01  4.19076860e-01
  -8.76909077e-01 -7.63891816e-01  4.27694589e-01  7.77890384e-02
  -5.96329160e-02  2.78298169e-01  1.76018521e-01 -3.33005160e-01
  -1.84881985e-01  3.85115258e-02 -1.54599875e-01  2.40106925e-01
   2.28050858e-01 -5.12664258e-01  1.06617913e-01 -6.97234645e-02
  -9.19569433e-02  7.19059855e-02 -1.67582557e-01 -5.89937806e-01
   4.70566481e-01  2.88422871e-02  5.27534366e-01  2.48733476e-01
  -2.51558632e-01 -1.21775217e-01  1.16575055e-01 -1.41050801e-01
  -2.93449074e-01 -2.09579095e-01  4.29007202e-01  2.58315414e-01
  -4.36724573e-01 -1.64965466e-01  6.48415864e-01  1.77677795e-01
   6.98893936e-03 -1.26522124e-01  2.53189117e-01 -5.39727509e-01
   5.27137578e-01 -2.05165222e-01  1.01120427e-01 -6.68638349e-02
  -3.67485136e-02 -4.49728310e-01 -1.86071724e-01  1.19661681e-01
  -3.86651218e-01 -2.52756327e-01  2.84794360e-01  2.58663982e-01
  -8.15354288e-02 -3.48405093e-02 -3.70743543e-01  3.08312289e-02
  -5.45474708e-01  2.58298516e-02  4.23256189e-01 -4.38843012e-01
   1.63360089e-01  1.57337770e-01  2.50559121e-01  3.22096050e-01
  -1.18605956e-01 -6.09534159e-02  9.79282111e-02 -4.13544029e-01
  -4.00930382e-02  3.35080875e-03  6.21471554e-02  5.34475088e-01
   4.02049124e-02 -2.51954317e-01 -2.76007354e-01  5.64553797e-01
  -3.91324997e-01  1.87383592e-01 -5.04210770e-01 -6.60847306e-01
   5.06967865e-02 -5.37960306e-02 -8.57678354e-01 -5.75203858e-02
  -2.14502990e-01 -3.09111387e-03  2.54898705e-02  3.48649532e-01
  -1.39260650e-01  2.87885457e-01  3.10745090e-01 -3.84216607e-02
  -7.46489093e-02 -1.26460567e-01 -3.79532844e-01  4.58628595e-01
  -8.52958560e-02 -4.05886352e-01  3.07178110e-01  1.19163327e-01
  -1.93229616e-01  2.57841289e-01 -3.99832517e-01  3.16069275e-03
   1.63725063e-01  4.80442196e-01  1.27389088e-01 -1.04238197e-01
  -3.02457333e-01  1.47751704e-01 -1.25213340e-01  2.33854175e-01
  -2.74050348e-02  2.93325275e-01  3.09291258e-02  6.66124344e-01
   3.35655719e-01 -2.93352872e-01 -1.19875085e+00  1.36278257e-01]
 [ 7.36781359e-02 -4.76809032e-02 -2.66597420e-02  2.36212537e-01
   3.46999429e-02  2.75141358e-01  2.31024444e-01  1.87069595e-01
  -4.15089786e-01 -5.51991642e-01  6.71324953e-02  6.78428933e-02
   1.96276363e-02 -1.33966692e-02 -4.62324470e-02 -6.62918210e-01
   1.80429034e-02 -1.42808994e-02  1.89215705e-01  2.02851430e-01
   1.50865361e-01 -9.30693522e-02  1.58724397e-01 -1.19029842e-01
  -8.80789533e-02  1.31325662e-01  8.95913392e-02 -1.09063856e-01
   4.21585619e-01 -1.04347616e-01  2.64265895e-01  2.14899108e-01
   9.50827524e-02 -1.18200660e-01  5.26098497e-02 -1.16147744e-02
  -1.62230372e-01 -3.05360444e-02  4.12488908e-01  1.13045119e-01
  -9.38367471e-02 -2.85657912e-01  6.38041794e-01  7.16808764e-03
   8.90254825e-02  5.11750504e-02  4.42226231e-02 -2.13368341e-01
   1.48530766e-01  1.31403670e-01  2.20904008e-01  3.95927727e-02
   2.09275872e-01 -5.50866202e-02  1.03604391e-01  1.45605907e-01
  -2.35147595e-01  1.28214478e-01  4.94834602e-01  1.69142410e-01
  -1.64670482e-01 -5.91480173e-02  3.26491117e-01 -7.54621550e-02
  -5.79577863e-01 -3.30391414e-02 -1.94052860e-01 -5.04197717e-01
   6.54734224e-02 -3.18984017e-02 -4.36918497e-01  2.88769603e-01
  -2.22457662e-01 -3.80890220e-02  3.26463938e-01 -5.82640693e-02
   1.86720178e-01 -2.20190823e-01  4.96296473e-02  1.21244729e-01
  -1.15418024e-01 -4.70427573e-01 -4.94410843e-01  3.47010285e-01
  -1.17219403e-01  5.80445051e-01 -6.68595254e-01 -5.22140503e-01
   1.86624587e-01 -6.25020936e-02 -8.85961205e-02  3.46813679e-01
  -3.52582276e-01 -1.07899375e-01 -3.50635722e-02  6.69649065e-01
  -1.01896584e-01  1.62195936e-01  7.73167284e-03 -2.89033051e-04
   2.18567476e-01  1.39914155e-01  5.61515018e-02  2.47794256e-01
   3.71997178e-01 -3.03990215e-01  1.85584381e-01  1.95015088e-01
  -2.34563351e-01  1.28018782e-01  8.68196562e-02 -7.64013529e-02
  -6.61130100e-02  8.64880010e-02  1.16514768e-02 -9.21116322e-02
  -3.99659395e-01 -2.11376205e-01 -2.75737733e-01  2.82230437e-01
  -1.02154780e-02  1.30675495e-01  1.27868935e-01  1.78195998e-01
   1.53743178e-01 -5.62094212e-01 -9.34286356e-01  2.82562047e-01]
 [ 3.28682423e-01 -1.16489090e-01  4.71373126e-02 -2.34010871e-02
  -6.02711551e-02  2.27670297e-01  2.03268379e-01  7.86680952e-02
  -2.44398057e-01 -1.20827146e-01  1.15246505e-01 -2.08276771e-02
  -5.10202833e-02 -7.62114078e-02 -2.22167149e-02  2.56468564e-01
  -4.53460291e-02  2.85908431e-02  1.42738193e-01  1.86187595e-01
   3.71473096e-02  2.10388705e-01  2.19422027e-01  3.99871357e-02
  -2.10813314e-01 -1.31813198e-01  2.37441450e-01 -9.44237560e-02
   4.21583623e-01 -1.02201514e-01  2.73849517e-01  2.71255404e-01
   1.03194393e-01  8.97671059e-02  3.23277228e-02  1.44934371e-01
   4.42379355e-01 -3.34097177e-01 -1.29860684e-01  4.04271007e-01
  -1.19584195e-01 -3.83103907e-01  3.14500511e-01 -2.16325417e-01
  -7.80670568e-02  3.64213139e-02  5.11045575e-01  4.79353592e-02
  -4.38903421e-02 -6.88503832e-02  3.80896479e-01 -5.85530475e-02
  -3.32326479e-02 -4.18494679e-02 -9.58298966e-02  8.88067018e-03
  -1.22436129e-01  3.21537107e-01  2.44286433e-01 -1.16096274e-03
   2.54911855e-02 -5.23949647e-03  5.26797414e-01  8.06939304e-02
  -6.65151656e-01  3.27073485e-02 -2.09792536e-02 -3.05828631e-01
   2.52055585e-01 -1.25911042e-01  2.18109250e-01  1.61165282e-01
   1.30432099e-01 -5.40426850e-01  7.93424621e-02 -9.43106264e-02
   1.87574342e-01  1.12260021e-02  2.76031464e-01 -6.89567700e-02
  -1.54047132e-01 -2.19520256e-01 -4.43442166e-01  8.35154280e-02
  -1.72322720e-01 -6.45906776e-02 -3.58684778e-01 -4.19699401e-01
   1.59562856e-01  1.46058667e-02  1.71574444e-01  3.37113142e-01
  -2.99390823e-01 -6.35781735e-02 -1.46548478e-02  4.68357354e-01
  -1.05374336e-01 -2.14451235e-02 -3.99555236e-01 -5.27483560e-02
   3.74271274e-01  1.91896155e-01  4.77873266e-01  3.48071039e-01
   4.10760716e-02 -1.44974604e-01  2.79956893e-03  1.03843413e-01
  -1.69677541e-01 -3.90676185e-02  2.16196239e-01 -6.92496970e-02
  -2.46440381e-01 -2.74202406e-01  2.04794288e-01 -2.61696316e-02
  -2.49414235e-01 -5.82622103e-02 -3.82171959e-01  1.54955283e-01
  -6.97344020e-02  8.54559764e-02  1.62422329e-01  1.03848837e-01
   4.03511971e-02 -8.18759426e-02 -6.87421441e-01  1.64780438e-01]
 [ 1.42731920e-01  3.45586091e-01 -2.39053383e-01 -3.35600466e-01
  -1.79435906e-03  1.16845462e-02  3.27107042e-01  1.32506534e-01
   2.03275718e-02  2.65929580e-01 -4.90764119e-02 -9.28719044e-02
   2.17766128e-02 -5.06318882e-02 -6.84750676e-02  3.08012307e-01
  -1.89827979e-02 -1.15812076e-02 -1.93118051e-01  2.77540892e-01
   1.00927494e-01  2.71914512e-01 -1.93738952e-01  1.05839692e-01
  -1.68609284e-02  4.55574170e-02  1.54225007e-01  9.51911137e-02
   1.28593192e-01  1.92362294e-02 -1.80066340e-02 -1.23156831e-01
   3.21060061e-01  2.49400944e-01 -5.68896346e-02  1.65853202e-01
   2.87787586e-01 -1.05502553e-01  2.87156727e-04  9.43978876e-02
  -1.14292363e-02 -2.75053740e-01  1.38965219e-01 -2.67014295e-01
  -1.38123957e-02 -4.49932069e-02 -1.69046387e-01 -4.78124134e-02
  -1.74446002e-01  9.63920355e-03 -1.10230427e-02 -4.94990461e-02
   1.98235080e-01  8.82927477e-02  1.16204761e-01 -1.29055843e-01
   1.94869220e-01  2.13057667e-01  1.22339994e-01 -5.92935868e-02
   1.04591316e-02  1.06703369e-02  8.11282024e-02  2.92088330e-01
  -1.02156425e+00  2.42031049e-02  9.45952311e-02  2.49142706e-01
   7.57656395e-02 -1.11462265e-01  4.42974776e-01  2.75460601e-01
   3.28948557e-01 -6.21019721e-01 -1.36857867e-01  3.65902811e-01
  -4.67237318e-03  3.67450863e-01  3.66524875e-01 -8.88464451e-02
   1.45284742e-01  2.71331161e-01 -2.23121241e-01 -1.94894999e-01
  -1.57869548e-01 -4.32241291e-01 -2.92978466e-01 -4.54527020e-01
   5.79550453e-02  9.32089798e-03  2.79077232e-01  2.29576245e-01
   1.66402042e-01  1.40241474e-01  3.69778946e-02  1.19482614e-02
   2.39040002e-01  2.47567445e-01  1.34773046e-01  5.50633781e-02
   1.91181764e-01  1.45736784e-01  1.61616355e-01  2.14340180e-01
   7.88356513e-02  2.33002901e-01  1.85730793e-02  9.97711420e-02
   7.30195045e-02  5.56205325e-02  2.64948994e-01 -9.16882604e-03
  -2.24196017e-01 -1.22162387e-01 -6.68937638e-02 -1.41802296e-01
  -7.52556622e-02 -6.06203713e-02 -2.39966884e-01  2.99682915e-02
   4.69409674e-02  2.53598362e-01  9.63618830e-02 -9.28432196e-02
   2.56061316e-01  9.51839238e-02  3.52289109e-03  2.72579879e-01]
 [ 1.85451299e-01  2.55950093e-01 -1.71674088e-01 -1.46423489e-01
   7.00664148e-02  2.63537437e-01  6.45023525e-01  2.33269766e-01
   2.13863924e-01  3.15979511e-01  1.27406985e-01 -9.80182737e-02
  -6.50287271e-02 -7.00441524e-02 -6.64979741e-02 -5.04948273e-02
  -5.34355223e-01 -5.82944741e-03 -4.04411227e-01  9.05800164e-02
   1.25640020e-01  3.16822119e-02 -1.01559207e-01  1.35711536e-01
   2.54030555e-01  7.08694980e-02  3.91409621e-02  6.33892044e-02
   4.33051400e-02 -1.82758942e-02 -8.24189037e-02  2.36785755e-01
   3.38303119e-01 -1.99182978e-05  1.59096450e-01 -3.84802334e-02
   5.76257348e-01  2.16747187e-02 -2.04988286e-01  2.63643384e-01
   1.07658952e-01 -2.30795994e-01 -9.25616249e-02 -1.07770666e-01
  -5.61312065e-02 -4.97651324e-02 -1.11961905e-02  1.58309750e-02
   1.97985649e-01  5.13466038e-02  2.37915382e-01  3.67784500e-02
   4.09387231e-01  3.14090371e-01  6.39134794e-02  2.28951033e-02
   4.06110674e-01 -3.97200286e-01  1.61215127e-01  4.36632186e-02
  -8.10655430e-02 -5.94611727e-02 -1.71027541e-01  4.91635710e-01
  -6.73691332e-01  1.56929597e-01  2.38852456e-01  6.37553334e-02
   1.44161448e-01  5.73118776e-02  2.74947017e-01  4.05040175e-01
   3.19842339e-01  2.00100869e-01 -3.77388567e-01  2.05303878e-01
   8.58111531e-02 -1.49495944e-01  4.10750061e-01  1.33822292e-01
   1.28245473e-01 -1.14529125e-01 -3.32268655e-01  9.06308368e-02
  -7.58246481e-02 -5.00967383e-01 -2.56288230e-01 -4.58985448e-01
  -1.64927572e-01 -5.51180094e-02  5.10567069e-01  2.20437169e-01
   5.02899662e-02  2.71651000e-01 -3.74890082e-02 -6.07789122e-02
  -4.53689359e-02  1.18671499e-01 -1.88622382e-02 -5.04409671e-02
   2.14993641e-01  1.76276192e-01  1.84032470e-01  2.74835408e-01
  -1.48787960e-01  1.57717466e-01  6.48367032e-02 -6.92277849e-02
   6.15233555e-02  2.54185200e-01 -3.18347253e-02 -5.20040542e-02
  -2.16296002e-01  2.46735709e-03  8.06798339e-02 -2.12141201e-01
  -1.09165289e-01  6.19566813e-02 -5.49562156e-01  3.87151027e-03
  -1.93204843e-02  3.11520666e-01  1.19262137e-01 -9.26651955e-02
  -3.85843426e-01 -3.17850351e-01  1.53046697e-01 -2.98408829e-02]
 [ 2.46924192e-01  7.25833699e-02 -3.31203729e-01  6.12965561e-02
  -1.32776871e-01  1.18759550e-01  4.70312834e-01  2.42233291e-01
   1.10570781e-01  3.20273966e-01  2.43797466e-01  2.41765045e-02
  -5.91948144e-02  1.75004601e-01 -6.11374900e-03 -8.41528252e-02
  -8.02174032e-01  7.17122182e-02 -5.22489846e-01  6.35270104e-02
   4.27954271e-02  6.20796457e-02  1.81916505e-02  2.07367703e-01
   2.16026474e-02  1.37013316e-01  4.37152050e-02 -1.36575066e-02
  -7.71440342e-02  2.78692488e-02  7.44496211e-02  4.11364257e-01
   3.56277019e-01 -1.05597958e-01  1.89806342e-01  5.76824583e-02
   4.86685544e-01 -3.29607562e-03 -4.07300323e-01  1.67695343e-01
  -4.70891781e-03 -8.78596976e-02 -1.86765388e-01 -2.03798637e-01
  -4.40733135e-02 -6.34888560e-02  1.37218907e-01  1.77483618e-01
   3.36591572e-01 -2.56687198e-02  3.43100667e-01  3.07775214e-02
   3.92990023e-01  2.74805546e-01 -1.81383744e-01 -1.15333989e-01
   1.11495517e-01 -3.53540331e-01  3.24512273e-01  1.68189660e-01
  -1.06979944e-01 -6.22715689e-02  1.15486018e-01  4.98836160e-01
  -4.64278311e-01  1.54423773e-01  1.25483677e-01  1.61778480e-01
  -4.24780091e-03  1.77429155e-01  3.69412005e-01  6.26569510e-01
   3.58485460e-01  1.06332757e-01 -5.63953757e-01 -1.71162382e-01
   2.51970768e-01 -3.95635545e-01  4.63535339e-01  3.67566556e-01
   1.39596939e-01 -5.13673946e-02 -3.66132915e-01  3.81444007e-01
  -9.67653990e-02 -1.54778644e-01 -1.35430783e-01 -4.90998514e-02
  -2.17681572e-01  5.57902083e-02  3.63935858e-01  1.97613955e-01
  -4.86382330e-03  9.54694673e-02  1.05679231e-02  2.78929085e-01
  -4.94621277e-01  1.00146882e-01 -2.01454565e-01 -7.01093525e-02
  -3.67085147e-03  1.77243933e-01  1.67272955e-01  4.94955927e-01
  -2.52810955e-01  5.13745565e-03  4.24437404e-01 -1.05666831e-01
   2.55951405e-01  3.28884274e-01  8.43540728e-02  2.92167515e-02
  -2.76340216e-01  1.84294239e-01  1.62066203e-02 -1.16948463e-01
  -7.72508755e-02 -1.26942605e-01 -7.91773736e-01 -1.11622162e-01
   4.56578918e-02  3.77404243e-01 -6.26240149e-02  2.91943438e-02
  -4.55913097e-01 -4.04001117e-01  1.98974296e-01 -2.75474578e-01]
 [ 3.09969485e-01  2.53823310e-01 -1.72333822e-01 -1.17806539e-01
   8.21058899e-02  1.81732923e-02  3.68008912e-01  1.04242750e-01
   1.63138524e-01  4.85547245e-01  5.78268394e-02 -7.04786628e-02
  -1.39723420e-02  1.08776204e-02  2.18621641e-02  3.84646088e-01
  -4.37259078e-01  1.88817328e-03 -5.50571442e-01 -1.36801610e-02
  -1.03048198e-02  4.46395934e-01 -2.56780177e-01 -5.12525029e-02
   1.05841406e-01 -2.98866332e-01 -6.33101463e-02  1.86693415e-01
  -2.66303927e-01 -1.46938279e-01  1.38237000e-01  2.58799732e-01
   4.47287738e-01 -7.83941075e-02  9.46632624e-02 -1.02609307e-01
   5.26813030e-01 -1.03891991e-01 -3.63898546e-01 -1.13029741e-01
   1.59930676e-01 -1.39671534e-01 -3.71118963e-01 -1.95908740e-01
   3.83881363e-03 -2.89726824e-01 -1.13487907e-01  1.34932727e-01
   4.31470014e-02  2.70653278e-01  3.12161714e-01 -2.69267857e-02
   1.73309863e-01  4.83876556e-01  1.57579735e-01 -2.21708328e-01
   2.41694123e-01  1.30467787e-01 -1.48158759e-01 -4.36171331e-02
  -1.19346427e-02 -6.10880516e-02  2.82734215e-01  5.22339404e-01
  -9.35494184e-01 -3.36051881e-02  1.63185969e-01  2.91190688e-02
   1.04850046e-01  8.84661302e-02  6.26509726e-01  4.46879923e-01
   1.83676735e-01  2.89517760e-01 -1.64232075e-01  3.31572860e-01
   2.17058063e-01 -1.12620927e-01  5.98481059e-01 -2.82787699e-02
   1.10733107e-01  2.91041702e-01 -3.40311766e-01 -1.86048999e-01
   3.26982923e-02 -3.16857338e-01 -2.71954179e-01 -3.77005816e-01
   6.45021871e-02 -1.65796243e-02  3.29461455e-01  3.95768404e-01
   4.14900124e-01  3.48364651e-01  4.17461134e-02  9.72256511e-02
  -2.05253661e-01  1.49335593e-01 -1.69692844e-01  6.47483300e-03
  -3.49018276e-02  1.70707896e-01  3.75119418e-01  3.18544954e-01
   1.29775316e-01  1.54909953e-01  5.51116616e-02 -6.15232028e-02
   2.27400064e-01  2.55267411e-01  2.01077014e-01  9.49089229e-03
  -2.94613302e-01 -3.43849272e-01 -1.11187533e-01 -2.84955263e-01
   1.06143095e-01 -2.73476154e-01 -2.60890841e-01  6.62427098e-02
  -5.76451644e-02  3.58053856e-02  1.99542046e-01  4.87847701e-02
  -2.10921064e-01 -3.63276750e-01  2.39812195e-01 -3.02886099e-01]
 [ 3.33849490e-01  1.93407889e-02 -1.00473717e-01  4.03412320e-02
   1.48127213e-01 -3.20018269e-02  2.15820432e-01 -6.77672476e-02
  -1.41576439e-01 -1.17420787e-02 -3.05612460e-02 -9.37985107e-02
   1.74343237e-04 -4.18817885e-02  5.51427621e-03  2.41492122e-01
  -3.23383182e-01 -5.12350304e-03  1.07309058e-01  2.16657773e-01
   1.62946388e-01 -7.58994371e-02 -1.38341829e-01  1.36908516e-01
  -1.17898256e-01  5.45286350e-02  2.03685001e-01 -2.00116619e-01
   1.74238190e-01  3.64731587e-02  2.43083686e-01  2.53838688e-01
   1.16558358e-01  6.54228702e-02  9.93819609e-02  2.52962828e-01
   5.62223136e-01 -5.10351174e-02  1.84279367e-01  3.20924371e-01
   2.67448127e-01 -1.79324299e-01  2.91451991e-01  1.10886507e-01
   3.22382376e-02 -1.88272491e-01 -1.20702967e-01  9.21682119e-02
  -5.41589335e-02  2.40546644e-01  3.94373626e-01  1.76984072e-03
   2.95214355e-01  2.82302350e-01  1.31549522e-01  4.02527414e-02
  -3.84951867e-02  3.10055137e-01  1.00192688e-01 -5.08868955e-02
  -1.64630637e-02 -2.29183328e-03  2.42759362e-01  1.96366876e-01
  -6.75506651e-01  1.42666996e-01  6.75957650e-02 -2.93859571e-01
   9.96816158e-02 -2.27240145e-01  4.01503563e-01  3.05503339e-01
   9.90280733e-02 -5.34335971e-01 -8.86764899e-02  1.60267372e-02
   1.95700228e-01 -1.81672439e-01  2.40838587e-01  6.64293468e-02
   6.85504228e-02 -1.81557402e-01 -1.62881657e-01  6.51394278e-02
  -1.73086792e-01 -1.51000187e-01 -8.59359026e-01 -2.92785645e-01
   1.82947889e-01  4.96466979e-02 -1.95804864e-01  3.20877820e-01
   6.25436902e-02  3.65282893e-01  5.38003678e-03  3.44077170e-01
  -3.82335722e-01 -1.37005234e-02 -1.21250182e-01 -8.91098473e-03
   2.98548758e-01  5.81222102e-02  2.97207236e-01  2.83968240e-01
   1.12258732e-01  8.45362172e-02  4.51882035e-02  1.65998012e-01
   8.72843899e-03  3.46008599e-01 -1.06384613e-01 -7.62025341e-02
  -2.72964478e-01 -1.08936027e-01  5.64208031e-02  9.59022790e-02
  -9.57490876e-02 -4.02989894e-01 -1.73117965e-01  2.06888154e-01
   2.86477748e-02  2.57377326e-01  1.04341611e-01  2.70754933e-01
  -1.62983328e-01 -2.12447777e-01 -4.86130506e-01  1.07694238e-01]
 [ 2.29237974e-01 -1.91444188e-01  1.66910559e-01  2.40297154e-01
   2.06771865e-01 -3.82252410e-02  9.90589038e-02 -1.08585678e-01
  -2.32952014e-01 -3.94906431e-01  1.62377670e-01  3.22499536e-02
   3.51385660e-02  3.13846141e-01 -1.12850197e-01 -1.28036708e-01
   1.90194264e-01  9.36325267e-03  1.33865535e-01  4.12142314e-02
  -1.85069535e-02 -1.15786396e-01  8.01588520e-02  5.20178862e-02
  -1.72135264e-01  2.71099269e-01  3.25489104e-01 -2.03261827e-03
   3.68932009e-01 -1.45979539e-01  5.36036551e-01  5.72078943e-01
   6.06673360e-02 -2.00553298e-01  1.07481770e-01  1.37209043e-01
   3.06012303e-01 -3.09524745e-01  2.24433392e-02  3.74223381e-01
   2.96555549e-01 -4.76842076e-01  3.79728407e-01  1.60731211e-01
   2.25840528e-02 -1.03902347e-01  1.88775882e-01  1.36467934e-01
   2.12574929e-01  1.51226610e-01  3.63293469e-01 -4.44037914e-02
   3.15099984e-01 -4.02862839e-02  4.10106003e-01  1.12809479e-01
  -1.86488152e-01 -7.37049505e-02  8.51351395e-02  2.32730597e-01
  -1.43291533e-01 -9.66412798e-02 -1.73360452e-01 -1.65720567e-01
  -9.89731967e-01  1.92012236e-01 -6.21234439e-02 -6.85480058e-01
   2.27173761e-01 -2.71163583e-01 -2.56336689e-01  1.32405028e-01
  -1.80393249e-01 -3.32430601e-01  2.45298222e-01 -1.72626659e-01
   3.15621912e-01 -3.12343180e-01  1.80953696e-01  9.59025882e-03
   6.68600202e-02 -5.82597613e-01 -3.82980824e-01  3.17037374e-01
  -8.39446038e-02  3.85959327e-01 -7.27179408e-01 -3.90533537e-01
   3.60792726e-01  4.78023104e-02 -3.04722726e-01 -8.11728537e-02
  -2.08377495e-01  6.15203567e-02 -6.45268857e-02  7.28644311e-01
  -3.29031855e-01 -1.98973604e-02 -1.40814021e-01  5.63562475e-02
   2.83365726e-01  1.08840376e-01 -1.80820450e-02  3.52087706e-01
   8.43086839e-02  5.92991300e-02  5.03868889e-03  2.56118596e-01
  -8.95117000e-02  1.95552707e-01 -3.40674445e-03  5.30305132e-02
  -8.71097967e-02 -1.08467683e-03  4.14620787e-01  4.32526410e-01
  -1.79726556e-01 -1.68356612e-01 -4.42867011e-01  1.39965236e-01
   3.78531292e-02  5.97402193e-02  1.05004698e-01  3.54226440e-01
   9.86984223e-02 -4.23357427e-01 -1.28655612e+00  2.32181907e-01]
 [ 2.18840569e-01 -8.35939050e-01 -1.37088358e-01  3.20176512e-01
  -8.28631446e-02  2.61486709e-01  2.43992671e-01  2.12765485e-01
  -8.19779158e-01 -8.77288043e-01  2.37298369e-01  4.84736003e-02
  -1.06026292e-01  1.24983534e-01  7.82304257e-02 -7.44479969e-02
   2.30891481e-01  2.68774619e-03  2.56180018e-02  8.63512754e-02
   1.88366726e-01 -4.42274541e-01 -1.26991943e-01  5.61635233e-02
  -2.95473952e-02  2.56674379e-01  3.10592502e-02  7.22859614e-03
   4.33448762e-01  7.07190600e-04  5.13764203e-01  4.93065923e-01
   7.20814392e-02 -1.74920768e-01  1.73445091e-01  2.13231832e-01
  -8.58238339e-02 -2.46708781e-01  1.77251518e-01  2.99470007e-01
   2.38755733e-01 -2.52990812e-01  4.20468450e-01 -1.12720567e-03
  -6.47881851e-02 -2.64100790e-01  3.87583077e-01 -1.96445584e-01
   2.76074737e-01 -9.72273424e-02  3.95664066e-01  2.02273950e-02
   1.07498042e-01 -8.82388279e-03 -4.38712426e-02  9.87419710e-02
  -4.09680575e-01 -4.40698206e-01  1.68562785e-01  4.82988030e-01
  -4.10002843e-02 -1.84950363e-02 -4.08341646e-01  3.10752932e-02
  -7.90789604e-01  2.14635432e-01  4.73136187e-01 -4.57131505e-01
   1.51314288e-01  2.20755905e-01  5.79538271e-02  3.86439472e-01
  -1.65671661e-01 -4.53253508e-01  2.82314062e-01 -5.02952933e-01
   5.36346436e-02 -1.99926376e-01  6.70601800e-02  2.56012052e-01
  -2.54603345e-02 -8.73423755e-01 -1.55710638e-01  2.90540785e-01
  -3.95708293e-01  1.46562696e-01 -4.61531162e-01 -5.53548634e-02
   1.81833878e-01 -6.49096593e-02 -8.98635030e-01 -3.91236655e-02
  -4.97742623e-01 -1.58229113e-01 -6.14250936e-02  8.91498327e-01
  -4.00172383e-01  2.38596171e-01  3.22037563e-02 -2.94632502e-02
   2.90814340e-01 -1.43879682e-01 -1.01158194e-01  2.55873948e-01
  -8.07954818e-02  4.92857993e-02  4.85304505e-01  3.05037618e-01
  -2.07294477e-03  4.86009985e-01 -1.02438390e-01 -6.70140758e-02
  -4.62005734e-02  3.50147784e-01  1.28336266e-01  1.03697911e-01
  -2.81678557e-01  4.26340997e-02 -5.08937500e-02  3.45269233e-01
  -1.33620277e-02  2.95929819e-01 -7.22796768e-02  5.18242061e-01
   7.76120648e-03 -7.44601130e-01 -1.59860301e+00  1.71526223e-01]
 [-2.37078547e-01 -3.05952877e-01 -1.57143161e-01 -1.14168562e-01
  -6.06526770e-02  3.18920970e-01  7.77754262e-02 -7.60179907e-02
  -9.99530375e-01 -5.90548873e-01  4.06064391e-02 -2.85117682e-02
   1.59276277e-02  6.00837395e-02 -2.20580801e-01 -1.94042489e-01
   6.22405410e-02 -3.01059056e-02 -2.60967135e-01  4.05420102e-02
   3.40257078e-01 -4.79898959e-01 -4.32792693e-01  3.25310022e-01
   5.62683903e-02  1.71983317e-01  4.54586782e-02 -1.42861515e-01
   1.22064136e-01 -7.58027658e-02  6.78271055e-02  1.82899162e-01
  -1.49541035e-01 -4.02498871e-01  2.43597135e-01  9.77547318e-02
  -3.82817209e-01 -1.61916345e-01 -2.56927371e-01  3.39838266e-01
